sequential/dense/kernel:0
(784, 128)
[[-5.20981522e-03  6.52089357e-01 -6.24043345e-01  4.98630591e-02
  -6.67774677e-02 -7.68852949e-01  7.25472197e-02  6.64824620e-02
   1.27851143e-02  1.62510380e-01  8.30749333e-01  1.86306387e-02
   3.75209183e-01  8.90150480e-03 -8.90567064e-01 -2.48558074e-03
  -1.82632819e-01  4.69867587e-02 -4.94062565e-02 -8.05070102e-01
   1.40045345e-01  8.58455420e-01 -7.99498260e-01 -4.47759777e-01
   8.18619803e-02 -4.76843864e-03 -2.80943274e-01 -2.03908980e-03
   1.22698516e-01  7.31587529e-01  5.97608313e-02  8.12555104e-03
   1.71102136e-01  4.76756066e-01  6.71546459e-02 -1.97898224e-01
   1.35092139e+00  9.44797873e-01 -1.29108533e-01  4.23798919e-01
   2.62641966e-01  8.01532641e-02 -7.25901872e-02 -9.05925930e-02
  -1.08575320e+00  6.34650961e-02  4.43725586e-01  9.02348384e-02
  -4.12854522e-01 -3.06336936e-02 -3.62098850e-02  7.62344837e-01
  -3.94803792e-01 -5.65795340e-02  1.59363419e-01  3.58701497e-01
   4.76281047e-01 -1.19113512e-01  8.40962291e-01 -2.06967875e-01
   5.94082594e-01 -9.98570919e-02  4.95748967e-03  6.91368997e-01
  -5.37453473e-01  4.49540108e-01 -1.35888427e-01  4.21247184e-02
  -2.11574569e-01  7.53318146e-03 -9.72229615e-02 -1.02941096e-01
  -1.59595108e+00 -5.16351387e-02  1.50516763e-01 -5.04432209e-02
  -3.90315831e-01  1.24756849e+00  7.50098169e-01 -1.42280115e-02
   3.61126401e-02  3.02039683e-02 -8.85958850e-01  3.08097005e-02
  -1.32753998e-01 -2.45272890e-02 -1.16221380e+00  1.46521509e-01
  -6.59009576e-01 -4.17436799e-03 -1.72335631e-03 -5.01752734e-01
   5.35037279e-01 -5.59739359e-02 -8.02482292e-03 -6.14379272e-02
   1.41530409e-02 -9.23519850e-01  1.19725496e-01 -1.50703967e-01
  -3.16013992e-01 -8.18359107e-02  1.80825368e-02  2.42820010e-02
  -1.30593814e-02  3.49288732e-02 -8.86315703e-01  2.14414801e-02
  -4.91089635e-02  1.37665719e-02  3.49333659e-02  1.34892896e-01
   6.38907552e-01  1.18658113e+00 -5.34968734e-01  8.39947760e-01
  -1.10423200e-01 -8.53881612e-02  1.50337148e+00  7.57669136e-02
   3.86918873e-01  2.85647184e-01 -1.72865856e-02 -1.18978143e+00
  -7.05418661e-02  6.86168000e-02  1.04993954e-02 -7.25015521e-01]
 [-1.23476446e+00  2.36236140e-01 -2.90432036e-01  7.21731707e-02
   8.63828897e-01  1.50257885e-01  2.01403961e-01  8.64963233e-03
   5.73645160e-02  5.83765268e-01  5.39725602e-01 -9.58702564e-02
   1.03184664e+00 -1.13891393e-01  6.48589849e-01  7.54781812e-02
   5.77845052e-02 -1.10777974e-01 -4.05855710e-03 -9.41160679e-01
   8.55139434e-01  4.44408178e-01 -1.64445579e+00 -2.49938250e-01
  -3.28709781e-01  2.23712847e-02  5.05267143e-01 -7.33045489e-02
   1.30230820e+00  3.53468329e-01  1.74652889e-01 -2.07061857e-01
   2.10638568e-01 -4.96476740e-01  1.60652146e-01  4.13660675e-01
  -1.78284442e+00 -5.80218613e-01 -4.51179713e-01  1.47092533e+00
   5.34030855e-01 -1.39749765e+00 -5.27651012e-01 -6.14277005e-01
   8.98500919e-01  3.39257047e-02  6.62540615e-01  1.48385046e-02
  -4.39034663e-02 -4.70760882e-01 -2.90783852e-01  1.23062944e+00
  -7.11136699e-01 -4.07033898e-02  7.39414692e-01  2.96178639e-01
   2.79954761e-01  4.75472361e-01 -1.29242450e-01  1.14580899e-01
   5.56272686e-01 -3.08297694e-01  1.69807881e-01  6.45870149e-01
  -6.56315327e-01  1.97845940e-02 -4.61618483e-01  1.17646861e+00
  -3.69088016e-02 -1.42857480e+00  4.89433020e-01 -6.67804927e-02
   1.11519039e+00  8.77419114e-03 -1.04404546e-01  5.13399005e-01
  -2.04416466e+00 -6.07919693e-01  8.72525156e-01  1.17146939e-01
   6.63335621e-01  3.94140631e-02 -2.88893253e-01 -6.25281110e-02
  -3.29991281e-01 -8.88191387e-02 -4.13638473e-01 -2.74556071e-01
  -1.15281204e-03 -4.86579835e-01 -1.60583884e-01 -4.11245488e-02
   7.50920177e-02 -1.39452517e-03 -2.12404039e-03  4.18420196e-01
   7.30672153e-03  7.64478922e-01  8.03430676e-01  4.28752869e-01
  -1.44281268e-01 -4.49564666e-01 -6.18092060e-01 -4.48649526e-02
   3.00467089e-02 -7.18272254e-02 -6.69345021e-01 -4.25329149e-01
  -1.58652574e-01  1.84624009e-02  1.62227694e-02  3.43545736e-03
  -4.80019420e-01  1.20288980e+00 -8.91287267e-01  8.91656756e-01
  -2.03509286e-01  2.90637791e-01  8.09846699e-01 -2.05439150e-01
  -2.76812196e-01  3.58508050e-01  2.99921900e-01  1.13744342e+00
   1.36952540e-02 -3.31781060e-02  3.48375202e-03 -1.95357651e-02]
 [-1.10804665e+00  9.00072977e-02  5.74502289e-01  5.55604976e-03
   5.72108507e-01 -3.80767226e-01  1.30336612e-01 -6.52206615e-02
   5.43845259e-02  9.04487371e-01 -4.66972798e-01 -1.02128051e-01
  -4.42439765e-01 -8.64439756e-02  3.67511004e-01 -3.94954085e-01
   2.29785770e-01 -5.27831674e-01  4.45929885e-01  7.07932234e-01
   2.15564698e-01 -1.26830742e-01 -1.53659272e+00 -5.72717369e-01
   4.92322706e-02 -5.81856770e-03  3.86203736e-01  2.01626346e-02
  -1.64236754e-01  1.14441705e+00 -4.86647822e-02 -2.19080791e-01
  -2.31935859e-01  3.85094620e-02 -2.39623282e-02  7.28528947e-02
  -1.09929585e+00 -6.14699364e-01 -7.83682287e-01  8.52225125e-01
   5.55640996e-01 -3.45601588e-01 -1.05996169e-01 -1.01677239e+00
   5.54470241e-01 -1.40046999e-02  5.14509559e-01 -8.03864837e-01
  -1.39224514e-01 -3.85191143e-01 -1.50496960e-01  5.04982293e-01
  -3.62493128e-01  5.18453866e-03 -3.70643944e-01  2.16267601e-01
   1.30822018e-01 -1.29461572e-01  9.87657011e-01 -9.27922949e-02
   4.26124066e-01  9.09201950e-02 -2.23371878e-01  1.50874257e+00
  -1.22228003e+00  1.87842682e-01 -1.93939790e-01  9.80975091e-01
  -1.52538860e+00 -1.15321338e-01 -5.87352037e-01 -6.43077374e-01
   3.62054795e-01  5.61146662e-02 -1.57418251e-02 -5.13336897e-01
  -1.21646427e-01  8.30424190e-01 -9.72435344e-03  2.76331097e-01
  -1.07397091e+00 -4.96706553e-03 -3.13024819e-01  1.71462670e-02
  -1.91984013e-01 -1.06950551e-01 -3.00917655e-01 -3.36703390e-01
  -4.00987923e-01 -6.12733006e-01  1.17063761e+00  1.15615107e-01
  -2.06478640e-01 -2.42758691e-02  1.81027770e-01  8.12178493e-01
  -9.99982879e-02  2.85485744e-01 -4.63353097e-01 -7.71981061e-01
  -6.33087754e-02 -1.19457595e-01 -1.28392637e+00 -1.31505858e-02
  -5.78296840e-01 -2.83204764e-02 -1.23517776e+00  1.09147859e+00
  -1.22055084e-01  7.14255497e-02 -4.83068451e-02 -5.81979930e-01
  -1.66671157e-01  5.58611929e-01  1.08806752e-02  7.84879029e-01
  -7.93627679e-01  3.68974768e-02  6.22249126e-01 -1.36082554e+00
  -1.34641588e-01 -4.15449515e-02 -4.33760583e-01 -9.43764329e-01
  -9.24889073e-02  6.11758307e-02 -5.08256257e-01  3.06867003e-01]
 [ 4.34561878e-01 -1.90268666e-01 -2.26812139e-01 -3.37208331e-01
   3.07842851e-01  8.99274200e-02  2.62148887e-01 -8.92397538e-02
   2.63480772e-03  1.14950550e+00 -1.76482931e-01 -6.58998489e-01
   4.22151715e-01  2.67643649e-02  6.04235291e-01 -6.14908338e-01
   3.58588733e-02  1.01374008e-01  2.28312552e-01  1.84602831e-02
  -7.62540996e-02 -1.08060442e-01  1.36902034e-01 -7.14188874e-01
   1.39774695e-01 -3.93326312e-01  6.56916201e-01  4.44464013e-02
   3.39418143e-01 -2.79263686e-02  6.60495937e-01 -4.51146513e-01
  -9.68028069e-01  1.48169637e-01 -2.03826606e-01  3.64672989e-01
  -1.64935637e+00 -8.16980422e-01 -7.39703625e-02  2.33252794e-01
   6.31541491e-01 -3.15764636e-01 -8.45461726e-01 -1.19079483e+00
   9.78819013e-01  2.11971328e-02 -5.75667262e-01 -1.33627689e+00
   2.18706995e-01 -2.94590831e-01  5.18155023e-02  1.03477871e+00
  -4.85273361e-01 -5.12811691e-02 -1.62173696e-02  1.72868997e-01
   7.43780851e-01  3.65800172e-01  5.43917775e-01 -5.74356504e-02
   9.93857607e-02  6.48624539e-01 -3.64741951e-01  3.97037029e-01
   3.33097845e-01  2.78203726e-01  7.07809567e-01  1.08818579e+00
  -1.33090585e-01  1.26947626e-01 -4.08760518e-01 -1.35731888e+00
   9.11571324e-01  3.93024459e-02  1.50909722e-01 -4.40213412e-01
  -6.49606764e-01 -1.20021209e-01 -3.43041390e-01  3.28765005e-01
  -1.34068358e+00 -2.45718867e-01  1.09587707e-01  4.33822647e-02
   8.24461207e-02 -4.58402216e-01 -7.49183521e-02 -6.48688674e-01
   1.82626873e-01  1.85288206e-01  1.47053143e-02 -1.39538974e-01
   7.60602951e-01 -6.98532835e-02  2.14722201e-01  7.57632375e-01
   2.68408567e-01  3.61394018e-01 -4.87431645e-01 -6.23915374e-01
  -4.85901594e-01  6.99105263e-01 -4.45415109e-01 -6.29054941e-03
  -7.38393307e-01 -1.62736580e-01  1.20097704e-01  5.58811426e-02
  -1.33140489e-01 -1.43126309e-01 -7.79753039e-03 -9.05416310e-01
   5.10341644e-01 -1.34595156e-01  8.35030019e-01  3.17923635e-01
  -1.88523322e-01  4.96736877e-02 -3.37944366e-02 -1.03745449e+00
  -2.97495812e-01  2.20470354e-01 -5.74148536e-01  5.16246080e-01
  -8.78151432e-02  7.53758967e-01  2.94205755e-01 -6.30480126e-02]
 [ 5.51040947e-01 -7.33454645e-01 -5.05071282e-01  3.87102604e-01
   8.72859955e-02 -2.32797369e-01  4.40176070e-01 -5.62308021e-02
   3.87268811e-02  2.10896343e-01  2.58753508e-01 -8.32490399e-02
   7.34477997e-01 -1.41034827e-01 -5.87242305e-01  2.50381500e-01
   3.78064096e-01 -2.25672737e-01  4.72839981e-01  5.62234402e-01
   7.30184436e-01  1.11821806e+00  2.87328750e-01 -1.98392421e-01
   8.90541196e-01 -3.28549534e-01  2.84824558e-02 -1.90005992e-02
   3.29351649e-02  4.87003714e-01 -3.08284491e-01  8.11855674e-01
   1.35712671e+00  1.11926876e-01 -5.51903248e-01 -6.54498279e-01
   1.93441436e-01  2.12870747e-01 -1.67337835e-01  2.45062351e-01
   6.65778279e-01  1.50974497e-01 -8.73357713e-01 -1.01861608e+00
   2.83539683e-01 -8.17044824e-03 -6.04299724e-01  9.08555806e-01
  -2.25765724e-02  1.06534624e+00  6.60749733e-01 -9.59676445e-01
   6.36596829e-02 -6.15132339e-02 -6.06272995e-01 -4.34901476e-01
  -2.01941393e-02 -4.27909523e-01  1.10974021e-01  4.29909453e-02
   1.92948043e-01 -3.49090397e-02 -2.46715337e-01  5.96120022e-02
   3.21987599e-01  1.14863527e+00  7.01704741e-01  3.21036726e-01
   8.06426525e-01  8.48771155e-01 -5.19197345e-01  7.05534637e-01
  -4.40527767e-01  5.58497831e-02 -2.43408769e-01 -6.68986797e-01
  -4.10500228e-01 -1.04387201e-01 -1.61376223e-02  1.07644491e-01
   2.58887231e-01  1.78957090e-01  2.57946108e-03 -3.75174433e-02
  -1.32049000e+00 -2.13897273e-01 -6.68326676e-01  2.12096289e-01
   1.14350468e-01 -4.98028696e-01  4.87438142e-01 -2.37748265e-01
   1.80897808e+00 -7.63342828e-02 -4.38196898e-01 -2.19778437e-02
   5.07332206e-01  7.30568051e-01  6.60884261e-01 -4.11609262e-01
  -1.35845780e-01 -6.37854397e-01  4.00021404e-01  1.70075707e-02
  -4.89372581e-01 -3.50872517e-01  3.92533571e-01 -4.41264004e-01
  -5.57384745e-04 -3.45903963e-01 -1.92045197e-01 -4.74641263e-01
   2.08196804e-01 -6.94268942e-01  2.26413101e-01 -1.32274461e+00
  -5.33385813e-01 -2.01120764e-01  5.40858686e-01 -5.55499531e-02
   8.11242521e-01  6.93051666e-02 -7.79397488e-01  5.51696956e-01
  -3.17278266e-01 -1.26016885e-01  3.18753272e-01  5.04160002e-02]
 [ 1.64336607e-01 -3.89429122e-01 -8.65447819e-01  6.74814522e-01
  -3.99092287e-01 -8.61539841e-02  1.24063447e-01 -7.56952316e-02
   5.96887693e-02  2.90735275e-01  5.22872150e-01  4.92185712e-01
   4.73229200e-01 -1.83997124e-01 -1.19191611e+00 -1.01505317e-01
   4.64215159e-01  6.26826525e-01 -1.56983554e-01  1.29380250e+00
  -3.77695799e-01  1.09144785e-02  3.63000095e-01 -1.15474559e-01
   9.87797678e-01 -2.64871776e-01 -3.05793613e-01  7.15419501e-02
   2.93210119e-01  1.22702934e-01 -2.85210222e-01  3.08628798e-01
   5.65410793e-01  3.88132393e-01 -1.06274712e+00 -1.09249759e+00
   9.63062763e-01  1.35829568e+00 -3.74548256e-01  5.86659372e-01
   2.42819324e-01  3.71114939e-01 -6.42375410e-01 -1.05895233e+00
  -1.65704370e+00  2.80837938e-02 -2.40749806e-01  6.14701986e-01
  -4.54536468e-01  9.16273236e-01  1.19314551e+00 -6.75336957e-01
   1.26543558e+00  5.07129580e-02 -6.53047025e-01 -7.42257595e-01
  -1.36144221e+00  7.11862147e-01 -4.61570453e-03 -5.50205767e-01
  -2.06367686e-01 -4.17077363e-01  9.74965394e-02 -1.61321416e-01
  -4.72207405e-02  6.29969418e-01  9.99086738e-01 -7.51620054e-01
   8.25040579e-01  8.51904899e-02 -3.34361792e-01  2.77857602e-01
  -5.55605412e-01 -2.16591470e-02 -6.69740558e-01  3.71805757e-01
  -1.51628935e+00 -3.11303765e-01 -5.56435227e-01 -8.60930920e-01
   1.04981863e+00 -7.50094205e-02 -2.14991383e-02 -2.19913200e-02
  -1.29600561e+00  2.52701759e-01 -4.27892774e-01  5.48129857e-01
   9.08944532e-02 -4.27273124e-01 -7.64835030e-02  6.04331940e-02
   1.12565148e+00 -6.65962547e-02 -4.10386771e-01  2.34347984e-01
   4.10621375e-01  7.24115252e-01  6.32866323e-02 -9.21559274e-01
  -3.58732998e-01 -7.34915018e-01  9.54053760e-01  1.88798811e-02
  -6.45648003e-01 -2.79791147e-01  2.22921491e-01 -4.43260312e-01
   5.91990650e-02 -1.42164752e-01 -3.79998773e-01 -6.68735683e-01
  -1.99334666e-01  1.92585588e-01  2.11841747e-01 -5.22879362e-01
  -3.19340974e-01  6.55324236e-02  5.67623019e-01 -9.40974504e-02
   1.16015196e+00  2.09263086e-01 -7.27156401e-01  8.47695589e-01
  -7.04312563e-01  3.44817899e-02  6.76077247e-01  4.29815263e-01]
 [ 1.82258308e-01 -4.69402939e-01 -2.22734123e-01  2.57899106e-01
   8.86090577e-01 -2.21915245e-01  6.50866032e-02 -2.31219251e-02
  -6.96277991e-02  2.34774947e-01  1.60673231e-01  3.92160922e-01
   1.07101500e+00 -1.84668265e-02  5.06692350e-01  2.34231308e-01
  -1.07635789e-01  9.86240208e-01 -7.65629351e-01 -5.75787842e-01
   1.73228490e+00 -7.42939174e-01 -8.12701643e-01  2.98506051e-01
   5.58761716e-01 -4.85045552e-01 -6.03575230e-01 -3.29896137e-02
   2.09107447e+00 -1.47067940e+00 -6.07374132e-01  4.61930603e-01
  -1.27077878e-01 -8.06047395e-03 -7.02537477e-01 -7.23545671e-01
  -1.61055014e-01  4.98150289e-01 -1.61735550e-01  3.62126082e-01
  -7.40439594e-01  6.46187425e-01 -1.31817132e-01 -1.29090810e+00
  -1.24959254e+00  1.16853788e-02  1.85487652e-03  1.94442540e-01
   3.01913947e-01  1.51518774e+00  3.90058190e-01  8.96470428e-01
  -2.55208433e-01  2.01176805e-03  7.43720353e-01 -6.59120560e-01
  -9.41487014e-01 -4.07408416e-01 -3.55287135e-01 -4.81454730e-01
   5.29069543e-01 -3.45826715e-01  7.15310127e-02 -6.62809908e-01
  -5.97598851e-01 -3.71195942e-01  5.26256740e-01 -9.60378945e-01
   7.83736348e-01  1.45178717e-02 -6.28716707e-01  4.09874082e-01
   1.27899304e-01 -6.18294366e-02 -2.39132956e-01  1.89054400e-01
  -2.34095478e+00  2.53060430e-01 -1.47103183e-02 -3.84480566e-01
   1.64508808e+00 -2.78831720e-01 -1.57656801e+00  2.63482183e-02
  -1.52722359e+00  1.25378251e-01  1.71150565e-01  5.31834252e-02
   3.50839019e-01 -1.08413053e+00 -3.34503502e-01  3.56668085e-01
   8.41662705e-01 -4.81771380e-02  2.57970870e-01 -1.40795276e-01
   2.42431939e-01  8.49600494e-01  3.38294879e-02  7.77778149e-01
  -1.21875256e-01 -5.09526968e-01  2.67934818e-02 -9.18455124e-02
  -5.97408354e-01 -6.06114745e-01 -2.97343493e-01  1.23681664e+00
   9.64031219e-02  3.29483636e-02 -3.75746012e-01 -8.98873806e-01
  -1.64777637e-01  1.68810463e+00 -2.54396558e-01  9.16245207e-02
  -3.34422052e-01  2.18806192e-01  6.23625636e-01  1.04278719e+00
  -9.32727814e-01  6.64636850e-01 -4.29428041e-01  1.28601396e+00
  -7.40049124e-01  4.34460104e-01 -5.76406002e-01 -2.52598792e-01]
 [-3.23839486e-01  4.24596727e-01  2.30665699e-01  3.31232101e-01
   6.02838457e-01 -9.95096922e-01  6.97814452e-04 -1.01207554e-01
   6.15906902e-02  4.67648417e-01 -4.86050397e-01 -1.25579834e+00
   2.06635922e-01 -1.54264018e-01  1.59995630e-01  1.67793751e-01
  -5.79667032e-01  1.25549464e-02 -1.65131795e+00 -1.19297779e+00
   7.01039612e-01 -1.43680084e+00  3.41431469e-01 -3.58367592e-01
   2.59393126e-01  2.23002404e-01 -4.36596543e-01 -6.61815703e-02
   2.25508499e+00 -1.36693263e+00 -1.15655112e+00  4.49537426e-01
   1.66263822e-02  1.28777409e+00 -9.05133665e-01 -6.27272546e-01
   6.81580186e-01 -3.70752513e-01  6.19881868e-01  7.04758465e-02
  -3.82718325e-01  1.05528927e+00 -2.79146016e-01 -8.92496824e-01
  -3.70032728e-01 -3.14689428e-02  2.45950907e-01 -7.60136008e-01
  -1.23127345e-02  6.22856975e-01  6.16370857e-01  9.27148879e-01
  -9.93792415e-02  5.16547821e-02  3.76437694e-01 -1.35243595e-01
   1.35949671e+00 -5.17715216e-01  7.25519806e-02 -1.08389556e+00
   5.44938743e-01  5.81303120e-01 -2.37763729e-02  6.43722951e-01
  -1.11542225e+00 -5.46667576e-01  2.67432094e-01 -1.80716920e+00
   5.93308389e-01  3.01909328e-01 -4.14972275e-01 -1.05180934e-01
  -4.65839595e-01 -4.42427807e-02  7.65484810e-01  1.05249870e+00
  -5.58893621e-01  1.09606433e+00 -1.05062115e+00 -3.88417810e-01
  -1.05274491e-01  3.67167890e-01 -1.93888283e+00 -3.49811465e-02
  -1.36764514e+00 -2.77126789e+00  8.59006643e-02  5.42240560e-01
   4.16310161e-01 -9.10896599e-01 -1.80691496e-01  6.91031277e-01
   1.08495545e+00  1.14882812e-02  2.20406368e-01 -1.87895954e-01
   3.18777084e-01 -4.94098812e-01 -7.61707902e-01  6.76900506e-01
   6.49900883e-02 -9.96871531e-01 -5.56965947e-01  1.01623517e-02
  -2.10451335e-01  3.16963464e-01 -5.04322052e-01  5.06697357e-01
   8.80616829e-02  1.67265818e-01 -6.89505875e-01 -1.43025446e+00
   4.94254827e-01  1.12782395e+00  3.09492737e-01  4.11554724e-01
  -1.06269717e+00  5.55714130e-01  1.41541278e+00  1.30685115e+00
  -3.84178869e-02  1.31793022e+00 -5.17211974e-01  4.10094708e-01
  -9.47765648e-01  1.29618675e-01 -1.56444103e-01 -4.00432467e-01]
 [ 1.42075196e-01  1.21473134e-01  6.19910002e-01  5.57391644e-01
  -1.33703768e+00 -4.77673173e-01  1.27231404e-01 -7.21032768e-02
   7.88435787e-02 -1.41560538e-02 -8.12975764e-01 -1.26766384e+00
   3.19263309e-01 -1.11807495e-01 -2.86479205e-01 -1.06225023e-03
  -3.22257131e-01  4.44001138e-01 -5.36550172e-02  2.68348515e-01
  -7.10447669e-01  1.66562676e-01  1.31022543e-01 -8.57753754e-01
  -2.06033871e-01  3.05805087e-01 -4.70290571e-01 -1.56637803e-01
   7.38209426e-01  8.77152145e-01 -2.23497629e-01  4.62140918e-01
  -2.41494521e-01  1.10456598e+00  3.16533633e-02  3.89041007e-01
   2.46663671e-02 -9.15794075e-01  5.11811078e-01  2.24131912e-01
   1.67057157e-01  5.60047589e-02 -9.89925802e-01  1.03652932e-01
   1.44614801e-01  1.19366199e-02  1.09419441e+00 -4.59319562e-01
  -6.08878911e-01  4.54970002e-01  5.82144260e-01 -1.46409050e-01
   4.82072711e-01  3.69912088e-02 -1.61397815e-01 -6.45942748e-01
   1.27502120e+00 -5.72419286e-01  3.53755951e-01 -1.10981727e+00
   2.71082699e-01  1.16453297e-01 -8.23671222e-02  1.65716469e-01
  -5.35141706e-01 -5.89450359e-01  2.62520224e-01 -1.78939903e+00
   1.52227700e-01 -7.86429942e-02  3.19509566e-01 -5.49266517e-01
   3.85674000e-01 -7.17569143e-03 -1.63589731e-01  1.48312473e+00
   1.40495777e-01  4.48538661e-01 -7.19200969e-01 -4.78193879e-01
  -6.45836592e-01  5.39738089e-02 -1.29615998e+00 -3.47594731e-02
  -1.41673720e+00 -4.75636274e-01  4.61254120e-01  4.29386675e-01
   5.54071605e-01 -1.23862103e-02 -4.35836315e-01  7.09973156e-01
   5.57900131e-01  4.11997288e-02  1.33473456e-01 -3.88156384e-01
   9.77992564e-02 -5.15753686e-01 -4.74904746e-01  3.62775415e-01
   6.25848174e-01 -1.59943655e-01 -1.76601243e+00 -2.07592435e-02
  -3.56549889e-01  2.14663759e-01  5.44157565e-01  2.93579221e-01
  -6.09979816e-02 -6.25186205e-01 -5.15101135e-01 -5.22503555e-01
  -3.79492715e-02  4.74729031e-01  2.30986141e-02  1.66428480e-02
  -9.24553454e-01  1.79600865e-01 -4.77798253e-01  4.02941793e-01
   5.73688388e-01  6.73370622e-03 -2.37012371e-01  7.37491608e-01
   1.91130415e-02  6.74482942e-01 -9.52784196e-02 -3.47714812e-01]
 [-8.26092482e-01 -6.99643910e-01  9.41254675e-01  1.67269126e-01
  -1.29366815e+00  7.70669198e-03  4.26839799e-01  4.53899987e-02
   4.89290506e-02 -1.44588649e-01 -1.43974912e+00  3.12870950e-01
   1.41284272e-01 -3.75636518e-02 -4.66743633e-02 -5.94324544e-02
   1.31953493e-01 -1.08242380e-02 -4.86220151e-01  3.85400027e-01
  -8.18745077e-01  1.56755149e-01 -8.63687024e-02 -5.34026563e-01
   7.21511424e-01  8.17169189e-01 -4.17124718e-01 -2.17106834e-01
   6.49603158e-02  1.29794097e+00  8.07814717e-01  7.28227735e-01
   4.61125314e-01  8.33380878e-01 -5.05712815e-02  4.04755443e-01
   1.47695482e-01 -1.13038421e+00  1.32224371e-03  9.84991968e-01
  -9.66678023e-01  3.27224851e-01 -2.00033236e+00  1.25953883e-01
   5.52734733e-01  7.88594857e-02  6.53787851e-01 -1.65952575e+00
  -9.89871562e-01  5.38732409e-01  3.23390007e-01 -1.91770345e-01
   4.90106225e-01 -2.02460419e-02  4.57503758e-02 -2.28420258e-01
   1.12182009e+00 -3.03328782e-01 -7.15705574e-01 -1.54496038e+00
   6.23233497e-01  5.74652135e-01  2.62164548e-02  3.08561534e-01
  -1.22024310e+00  1.13473907e-02 -4.46518622e-02 -7.91933119e-01
   1.47980258e-01 -4.84979123e-01  8.03464472e-01 -6.02203548e-01
   7.08834052e-01  1.73113570e-02 -1.20454597e+00  1.17577612e+00
   4.11529601e-01  4.54362445e-02  7.50743330e-01 -5.97168148e-01
   8.88879359e-01 -3.08729321e-01 -4.02537704e-01 -3.04240100e-02
  -1.21703637e+00  8.21691036e-01 -5.64360559e-01 -1.06190875e-01
  -9.62187815e-03  3.53655398e-01  3.96911830e-01  4.06670719e-01
   8.83442223e-01  1.62768818e-03  2.87466615e-01 -5.83720922e-01
  -3.98143709e-01 -2.06657097e-01 -4.96927649e-01  2.95312941e-01
   2.18880139e-02 -2.31947437e-01 -1.05257869e+00  1.42833851e-02
  -3.65412772e-01  4.86776412e-01 -2.25879177e-01 -8.77157867e-01
   2.78316066e-03 -5.41462958e-01  4.20069486e-01  7.64466897e-02
  -1.38992441e+00  1.03865497e-01 -1.59067109e-01  1.81924626e-01
   4.14269306e-02  1.87393546e-01 -9.28948671e-02 -5.04915044e-02
   3.58432472e-01 -8.41786742e-01 -3.89564812e-01  5.22448778e-01
   7.68097863e-02 -4.68835905e-02 -9.75170732e-02  2.27169301e-02]
 [-3.67890805e-01 -2.22969607e-01  6.13681853e-01  4.65137064e-02
   6.24695837e-01  4.27497804e-01  4.62053448e-01  6.94446042e-02
  -6.77215829e-02  3.45271230e-01 -1.61741304e+00 -1.09424007e+00
   6.76159382e-01 -6.17738068e-02 -2.33298004e-01 -1.89752579e-02
   1.24727614e-01  7.04219043e-01 -1.64211762e+00 -2.49684051e-01
   6.09651685e-01 -1.23846841e+00  3.94450724e-01  1.10811062e-01
   1.34190464e+00 -3.41041148e-01 -4.11877692e-01 -4.68130447e-02
  -2.35446140e-01  6.09028757e-01  1.01324297e-01  2.48959348e-01
   8.62538159e-01 -5.83958663e-02  1.02571738e+00 -2.20265210e-01
   1.59597981e+00 -1.49402410e-01 -2.51228392e-01 -2.88156390e-01
  -6.93727493e-01  1.17895782e+00 -2.93749720e-01 -3.66120897e-02
   1.57947436e-01 -8.70397687e-03  7.00227544e-02 -1.04806371e-01
  -7.81810045e-01 -5.50198019e-01  2.03300148e-01 -4.78590280e-01
  -8.71281028e-02 -3.11752595e-02  5.11591971e-01 -6.29108101e-02
   9.28315043e-01  2.65915930e-01 -1.23266256e+00 -1.11876512e+00
   9.42399859e-01  1.58731115e+00 -1.24230854e-01  4.23623353e-01
   4.24348563e-01  3.22825015e-01 -3.61108601e-01  5.64135134e-01
  -8.52372646e-01  1.12560980e-01  6.27324164e-01 -9.59150076e-01
  -1.86688341e-02  7.92460144e-03 -2.15622693e-01  4.01747078e-01
   1.21736504e-01  4.32432204e-01  7.95852900e-01 -4.15842324e-01
   1.43450737e-01  5.47600538e-03 -1.02418697e+00  1.07388189e-02
  -5.61925530e-01  1.38399392e-01 -1.22785902e+00  6.33231997e-02
  -1.91880196e-01 -1.05744731e+00  5.20472169e-01  7.20129669e-01
   1.65600583e-01 -2.19471678e-02 -1.86355621e-01  2.27359608e-01
   1.52062029e-02  1.92938745e-01 -9.38896656e-01  5.06789088e-01
   1.06132172e-01 -3.77689630e-01 -2.28017306e+00 -6.36060014e-02
   3.43414277e-01  2.08551660e-01 -9.08384681e-01 -6.27988696e-01
  -1.36853501e-01  2.34040692e-01 -3.57684046e-01  2.58669078e-01
  -1.23431766e+00 -3.56284082e-02  1.26890078e-01  6.45743906e-01
  -2.81026632e-01  1.07451295e-02  4.73457992e-01 -5.84673643e-01
   5.68664789e-01 -6.32779777e-01 -1.13016486e+00 -4.74033915e-02
   1.93333685e-01  2.50376999e-01 -4.90510046e-01  1.25846481e-02]
 [-4.12847131e-01 -6.64398849e-01 -2.77412027e-01 -1.12416960e-01
  -5.01064241e-01  1.48827553e-01  3.93809974e-02 -6.76722676e-02
  -4.27620038e-02 -5.24734139e-01  2.30752546e-02 -1.34054112e+00
   8.12651217e-01 -3.56040269e-01 -1.73230357e-02 -1.68883830e-01
   5.44836342e-01  9.49665427e-01 -5.51525414e-01  6.94843411e-01
   1.70127645e-01  1.85801044e-01 -3.36389989e-01  1.22202657e-01
   4.55670267e-01 -3.37652624e-01  3.69901687e-01  1.68756232e-01
  -1.03979957e+00 -1.06070392e-01  3.71928573e-01  4.10839878e-02
   9.77409244e-01  3.69807810e-01  1.03022799e-01  3.74530017e-01
   5.60855389e-01  7.50574410e-01  1.10606618e-01  4.68673080e-01
  -1.51106209e-01  1.01464665e+00 -4.56369549e-01 -1.34423554e-01
   3.27281833e-01 -3.82119007e-02 -9.04581606e-01  1.59463122e-01
  -4.63347971e-01 -8.94702971e-02  7.72545859e-02  4.79439199e-02
   1.39080718e-01 -7.46712163e-02  1.03844166e+00  7.22758621e-02
   2.66657565e-02 -4.05096039e-02 -5.68023503e-01 -1.71215758e-01
   7.09394813e-01 -9.45896953e-02 -3.99629205e-01 -3.48160379e-02
   8.36300015e-01  6.89360946e-02 -7.95358658e-01  7.60838926e-01
  -3.27751547e-01 -5.37954532e-02 -1.73837736e-01 -5.97472906e-01
  -5.37271321e-01  1.90419033e-02 -8.74215186e-01 -1.20308392e-01
   1.09236546e-01  7.44073212e-01  4.85160261e-01  4.58042800e-01
   3.29563022e-01  1.52439237e-01  3.94695699e-01 -4.43534553e-02
  -2.67799020e-01 -3.29173535e-01 -5.29709756e-01 -5.69236338e-01
   4.32137370e-01  1.04084849e+00  3.77053535e-03  1.19970374e-01
   1.09669864e-01  5.36872484e-02 -1.05156076e+00 -4.22080964e-01
   9.19794858e-01 -4.41042006e-01 -4.42739010e-01  6.75667703e-01
   6.43250525e-01 -4.76607978e-01 -2.28351891e-01  5.39184490e-04
   6.16301894e-01 -2.67010406e-02  1.01305425e-01  2.38849670e-01
  -1.89983651e-01  2.01120712e-02  9.45798457e-02 -5.03370762e-01
  -1.42150566e-01  2.89359629e-01 -2.51450926e-01 -5.59438281e-02
  -4.53492761e-01 -1.96671337e-01  4.68147457e-01  2.84956563e-02
   4.30337578e-01 -6.24735296e-01 -4.19051081e-01 -4.84890312e-01
   7.96025634e-01  3.09313744e-01 -5.14995277e-01  5.79873204e-01]
 [ 2.26827338e-01 -8.19201052e-01 -9.43911552e-01  1.01087376e-01
   2.50374794e-01  3.87724340e-01 -4.25258905e-01  8.42557009e-03
   5.26749156e-02 -5.77301681e-01  4.31375533e-01  1.15541011e-01
   2.60847330e-01 -4.56830800e-01 -8.91226716e-03 -6.34329319e-01
  -2.71602422e-01  5.79682708e-01 -6.39305711e-01  5.87046444e-01
   7.19208568e-02  4.26183999e-01 -5.90292886e-02 -2.94453166e-02
  -4.21582222e-01  6.03786111e-01 -2.38608897e-01  1.77628979e-01
  -8.53776038e-01 -5.73084295e-01 -4.89558935e-01 -7.62674570e-01
  -8.44205841e-02  3.61249447e-01 -6.88381374e-01 -6.86986446e-02
  -1.39746737e+00  7.49902546e-01  6.98781133e-01 -1.03101775e-01
  -9.63190794e-01  1.30474985e-01  6.28530145e-01  6.60914034e-02
   8.07545856e-02  2.06412864e-03 -1.05153871e+00  4.22351301e-01
  -5.59308767e-01 -1.16121516e-01 -2.49413103e-02  1.51301607e-01
  -8.91056657e-01 -4.66411822e-02  3.80476266e-01 -3.39997530e-01
  -4.28258777e-02 -1.22344337e-01 -8.24705541e-01  8.45590174e-01
   1.53798759e-01  1.23876825e-01 -6.64946556e-01 -6.31269157e-01
   2.03707844e-01  7.68859923e-01  1.37778312e-01  4.93600070e-01
   4.78379428e-02  3.47580373e-01 -1.10174008e-01 -7.63415933e-01
   1.66832194e-01 -4.51425463e-03 -8.43906820e-01 -2.29776931e+00
   1.54926404e-01  4.68652576e-01 -6.67425804e-03 -1.84621304e-01
  -3.93318325e-01  1.16295829e-01  7.45357513e-01  3.00319716e-02
  -5.43636084e-02 -3.64352614e-02  7.86703303e-02 -2.65740603e-01
   6.96372271e-01  1.01419759e+00 -1.89005405e-01  2.30903208e-01
  -1.00744113e-01 -5.32157719e-02 -8.54854763e-01 -9.03232813e-01
   4.42242086e-01 -3.45573843e-01  4.37354147e-01  1.09453511e+00
  -3.53026599e-01  3.01280797e-01  5.58664441e-01 -2.96756160e-02
  -9.35513452e-02 -9.46864262e-02  5.31211674e-01  5.21407835e-02
  -1.58814952e-01 -5.02109289e-01  3.60418707e-01 -5.22676229e-01
   5.58528006e-01 -2.18532324e-01 -4.50608075e-01 -7.65395403e-01
   3.40166926e-01  5.26982062e-02  3.69151562e-01 -2.63653249e-01
   1.13439381e-01 -5.04144132e-01  1.02511354e-01 -1.14528370e+00
   3.60066593e-01  1.38924047e-01 -2.37868816e-01  8.35542440e-01]
 [ 2.20353991e-01  2.83738673e-01 -6.59830570e-01  7.20141158e-02
  -5.41402353e-03  6.92518055e-01 -8.37128520e-01 -4.34450656e-02
   6.17392324e-02 -4.28043127e-01  1.59408092e-01  8.52356315e-01
   6.96797013e-01 -4.17452753e-01  5.25332689e-01  1.42014464e-02
   1.90790191e-01  3.95378530e-01  1.18659817e-01 -2.06866100e-01
   2.53146768e-01  5.36521435e-01  3.41355242e-02  1.85319290e-01
   2.59046972e-01  4.89032328e-01 -3.59018564e-01  1.65867895e-01
  -1.76451519e-01 -1.04666722e+00 -7.84678280e-01 -1.32881021e+00
  -1.98951021e-01  3.43073756e-01 -1.05469155e+00 -5.49660265e-01
  -2.09069633e+00 -3.47860157e-01 -7.42698908e-02 -4.36146051e-01
  -6.87808454e-01 -1.04080927e+00  9.25454125e-02  7.75792599e-02
  -1.80215701e-01  1.68225002e-02 -4.23355401e-01  5.18943608e-01
   2.12395161e-01 -8.48209932e-02 -1.45376757e-01  5.94170392e-01
  -1.37236357e+00 -7.36278221e-02 -2.79031545e-01 -8.30918550e-02
  -1.68001369e-01 -1.00723743e+00 -8.06644320e-01  4.81914729e-01
  -7.96758309e-02 -2.24904910e-01 -7.83771336e-01 -3.45320404e-01
   6.83930576e-01  1.02410579e+00  1.90749317e-02 -2.44840488e-01
  -2.46723704e-02  1.02810133e+00 -1.00162230e-01  4.45484184e-02
   4.40405607e-01  7.85510316e-02 -8.41757417e-01 -4.05093813e+00
  -4.96473938e-01 -6.37630463e-01  5.97166955e-01 -6.73894584e-01
   5.37438095e-01 -1.51606694e-01  5.97921610e-01 -4.69355248e-02
   7.44485259e-01 -3.39460969e-01  6.24753594e-01 -4.01397079e-01
   4.54764009e-01  4.97305632e-01 -8.83762002e-01  4.39390004e-01
   7.60441601e-01 -1.29844826e-02 -1.27206469e+00  1.37328148e-01
   2.19408218e-02  5.34092486e-01  6.47953749e-01  1.14989996e+00
   2.04381511e-01 -1.21487960e-01  1.28233641e-01 -2.28703730e-02
  -5.18547855e-02  2.31486768e-01  1.15450837e-01 -5.13623953e-01
  -2.08490536e-01 -7.33349144e-01  1.15357094e-01  2.06967250e-01
   5.60657442e-01 -4.76157069e-01  3.71820718e-01 -1.86432052e+00
   9.44498420e-01  6.45594239e-01 -3.20162512e-02 -6.76440224e-02
  -6.10640466e-01  2.42623910e-01 -8.60043243e-02  1.14460275e-01
  -7.91662559e-02 -4.09202799e-02 -4.80352819e-01  4.54043925e-01]
 [ 9.60602090e-02  1.88761845e-01 -3.44199032e-01  1.63149029e-01
  -7.10538685e-01  9.97574747e-01 -3.45328480e-01 -2.42236257e-02
   1.06025174e-01 -3.77201170e-01  4.67396677e-01  1.11307001e+00
   5.11338830e-01 -3.66339684e-01  3.33302975e-01  6.55519292e-02
   2.67279446e-01  5.91242909e-01  8.87922719e-02 -2.72866815e-01
  -1.45301431e-01  8.34565520e-01 -2.83451855e-01  1.30656973e-01
   3.28314453e-01  7.68838972e-02 -7.71812946e-02  2.65674025e-01
  -7.65084773e-02 -6.64079368e-01 -5.17157912e-01 -9.62750196e-01
  -7.04907954e-01  4.18540269e-01 -9.98584092e-01 -5.99003732e-01
  -2.05779362e+00 -5.53684115e-01 -3.16856802e-01 -7.03496814e-01
  -9.30178523e-01 -5.06609380e-01 -7.49200433e-02 -6.42260362e-04
   2.94662148e-01 -7.05938488e-02 -4.46487993e-01 -1.48116112e-01
   3.62340152e-01 -1.98666349e-01  2.95303278e-02  1.05182099e+00
  -1.26784337e+00  4.09000628e-02 -2.63889283e-01 -4.80180740e-01
  -5.01675308e-01 -1.02724481e+00 -8.46927702e-01  3.39359604e-02
  -1.72588840e-01  5.79468608e-01 -3.78843457e-01  2.38107458e-01
   9.70250547e-01  9.38142061e-01  1.64171517e-01 -6.52966946e-02
  -1.29489422e-01  5.15726924e-01 -1.03764482e-01 -2.65849680e-01
   8.79639387e-01  5.27775288e-03 -1.63188845e-01 -3.77911782e+00
  -5.02399564e-01 -1.28551650e+00  5.82386732e-01 -6.02211356e-01
   6.74497366e-01 -2.96812713e-01  6.08552694e-01  3.26081663e-02
   1.20400739e+00 -3.89696389e-01  1.30324614e+00 -4.99531507e-01
   3.84034306e-01  5.03690660e-01 -3.87530535e-01  5.99390924e-01
   7.38687158e-01  4.52960581e-02 -1.20205629e+00  4.32703018e-01
   7.44978413e-02  2.04002470e-01  3.04777414e-01  1.07265139e+00
  -3.45572969e-03 -4.29075539e-01  1.55215189e-01  8.98364279e-03
  -6.15861379e-02  4.09375489e-01 -1.95201728e-02 -4.55724359e-01
  -1.22947246e-01 -1.37312722e+00  2.47159395e-02  6.42364323e-02
   8.13772082e-01 -7.72773325e-01 -6.15734421e-02 -1.77556562e+00
   8.22624803e-01  5.08449733e-01 -2.86638230e-01  1.21129476e-01
  -6.63557529e-01  7.07821250e-01  3.71761292e-01  3.77571642e-01
  -1.61145538e-01  1.26094446e-01 -6.70528889e-01  4.16072369e-01]
 [ 3.27468395e-01 -5.40875077e-01 -8.29253614e-01  1.61763415e-01
   2.36260131e-01  2.24309593e-01 -5.17671287e-01  1.01327561e-02
   1.13802709e-01 -2.72212237e-01  6.55967116e-01  3.12870383e-01
   3.09246331e-01 -3.62649590e-01  2.18392938e-01 -2.03632355e-01
  -8.09068754e-02 -1.68042004e-01 -9.47245061e-02  3.93285811e-01
   5.40129364e-01  3.64815861e-01 -3.89830582e-02  2.57559150e-01
   1.08303972e-01  1.51023537e-01  1.34579480e-01  1.75848961e-01
  -4.44077313e-01 -4.74670649e-01 -7.52783120e-01 -4.62509990e-01
   2.25195847e-02  4.17482913e-01 -8.63650382e-01 -4.42157924e-01
  -1.69585931e+00  1.10834233e-01  5.69432974e-01 -3.43267657e-02
  -6.64677799e-01 -1.70513794e-01  3.66155535e-01  9.18913260e-02
   2.57246375e-01  8.35614130e-02 -5.86442530e-01  5.88811874e-01
   7.00244075e-03 -5.85476346e-02 -4.84210521e-01  9.89354849e-01
  -1.14773381e+00 -4.42379154e-02  3.16398926e-02  6.89781876e-03
  -3.33247274e-01 -2.79475804e-02 -6.10174477e-01  6.15229547e-01
   6.88561797e-02 -2.14388803e-01 -4.06706244e-01  1.28144071e-01
   7.59366006e-02  4.43547308e-01  2.66178558e-03  1.50850207e-01
   1.75167039e-01  3.04706693e-01 -1.06408298e-01 -1.53627649e-01
   2.14527577e-01 -7.08149597e-02 -1.12812257e+00 -2.86406612e+00
  -4.98117030e-01  2.02842921e-01  3.88635576e-01 -3.52956265e-01
  -1.24213554e-01 -1.78600818e-01  3.79744738e-01 -6.38957545e-02
   7.99802661e-01 -3.80612940e-01  8.59700084e-01 -7.28372931e-01
   2.14484468e-01  1.04080784e+00  1.82393983e-01  2.21385524e-01
  -1.11416087e-01 -8.47366676e-02 -1.21628344e+00 -9.57364067e-02
  -1.59798972e-02  4.30819243e-01  2.73331016e-01  6.26274049e-01
   1.23388082e-01  1.24504611e-01  3.49593222e-01  4.30587120e-02
  -3.43432337e-01  3.75387907e-01 -2.35948712e-04  1.41288802e-01
  -1.65167481e-01 -1.03907311e+00  2.51320630e-01 -1.28229618e-01
   8.17305505e-01  1.11370139e-01 -1.22358762e-01 -6.34904146e-01
  -2.92152632e-03  6.22607768e-01  2.08381698e-01 -4.42857236e-01
  -2.82298595e-01  1.09464437e-01  1.49678364e-01 -1.92405671e-01
  -5.52217066e-01  3.17547500e-01 -4.45639521e-01  5.29872358e-01]
 [-9.47137699e-02 -7.18644142e-01 -8.22851318e-04 -2.11386219e-01
  -6.63333312e-02  1.67276949e-01 -2.86887079e-01 -6.00126758e-02
  -4.78936778e-03 -6.31690145e-01  3.05640996e-01 -4.16060656e-01
   7.93652654e-01 -3.77774000e-01  2.65971988e-01 -2.83223718e-01
  -5.70683554e-03 -3.29760969e-01 -2.67308146e-01 -2.97874719e-01
   9.17497456e-01 -3.94136794e-02 -6.31037354e-01  1.44305468e-01
   5.95474422e-01 -6.30843997e-01  1.29275396e-01  1.54458731e-01
  -4.08933550e-01  1.37098096e-02 -3.14083874e-01 -1.85317442e-01
   2.13250265e-01  1.08577609e-02 -3.68185081e-02 -3.89359951e-01
   8.83517042e-03  1.15109622e-01  9.32460010e-01  4.31430280e-01
  -1.04849482e+00  4.32917207e-01 -4.75771964e-01 -2.66973644e-01
   2.30932385e-01 -5.45508862e-02 -6.27146289e-02  1.38687789e-01
   7.86188096e-02  8.33441973e-01  3.71557891e-01  1.13062692e+00
  -5.30626833e-01 -2.63931341e-02  5.09696722e-01 -7.56607130e-02
   4.73905401e-03  1.03918135e+00 -3.15450191e-01  4.46876824e-01
   6.36354029e-01  3.95722389e-01 -4.48239148e-01  4.39327240e-01
   1.89699173e-01  4.96141911e-01  9.44001600e-02  3.88347596e-01
  -4.52422351e-01 -1.27613127e-01 -1.04900949e-01 -2.51056343e-01
  -4.37432304e-02  3.58945727e-02 -1.02925062e+00 -1.52344003e-01
   9.65223461e-02  9.85668540e-01  4.40314472e-01  2.14630477e-02
  -1.55341789e-01 -2.70533841e-02  3.26809376e-01 -4.52455319e-02
  -4.86760080e-01  9.66505259e-02  2.60489941e-01 -7.00802445e-01
  -1.15465872e-01  3.41294646e-01 -1.76969633e-01 -1.14289254e-01
   5.97230852e-01  2.83087622e-02 -9.48905528e-01 -4.98504251e-01
   4.96599466e-01  3.28342378e-01 -3.29751410e-02  8.24318588e-01
   4.14527565e-01  3.35251808e-01  1.36420414e-01 -7.42655024e-02
   9.67061892e-02 -2.29479015e-01 -8.93480718e-01  5.97459495e-01
  -3.08017373e-01 -5.27584076e-01 -5.87405870e-03 -3.51390004e-01
  -4.77356613e-01  8.27723980e-01  1.16648033e-01  4.11366038e-02
  -2.81176776e-01  4.62454587e-01  5.55465400e-01  2.03120083e-01
  -7.57769346e-01 -2.62500077e-01 -3.21490198e-01 -4.37579036e-01
   8.00793320e-02  2.88985580e-01 -1.42811462e-01  2.53294975e-01]
 [ 1.96371928e-01 -8.27669978e-01 -3.88458252e-01 -2.01966360e-01
  -5.85981794e-02  3.04925859e-01  6.16118833e-02 -5.40261678e-02
   6.52662246e-03  2.42619604e-01 -1.31076121e+00 -1.69404581e-01
   6.59581900e-01 -3.96216273e-01 -1.82629570e-01  2.62077272e-01
   6.49818685e-03  4.91141886e-01 -6.89262450e-01  3.61375302e-01
   9.68702078e-01  3.27694088e-01 -2.50485569e-01  5.38509786e-01
  -1.46074146e-01 -1.68913826e-01  5.56252837e-01  2.93688662e-03
  -4.85285185e-02 -7.53035620e-02  3.51744741e-01 -2.67329872e-01
   4.43015695e-01 -4.70030844e-01  1.35251999e+00 -2.97188967e-01
   9.97740626e-01  9.89875421e-02 -2.52487272e-01 -5.25194466e-01
  -1.05406880e+00  6.59639895e-01  1.72934011e-01 -4.76473659e-01
   3.67869943e-01 -6.87169656e-02 -4.61723894e-01 -7.42403604e-03
   1.06457257e+00  2.25841925e-01 -2.52806515e-01  5.25224030e-01
  -3.16158384e-02 -1.29900873e-02  5.46755254e-01  2.57207602e-01
   3.95285308e-01  2.53615052e-01 -7.80200958e-01  7.08162040e-03
   2.22832531e-01  7.77032733e-01 -2.54691362e-01 -7.52419373e-03
   5.23751602e-02  9.03030813e-01  1.79744482e-01  6.12050653e-01
  -1.20391703e+00 -2.57061332e-01  5.24388134e-01 -2.15139344e-01
   4.64459151e-01  9.83938575e-03 -8.81763697e-01  4.84986246e-01
   9.12628844e-02  5.93277037e-01  4.12643224e-01 -3.93108398e-01
  -8.83890539e-02  6.53500929e-02  6.62988484e-01  2.63786726e-02
   3.24010879e-01 -1.01273181e-03 -2.91871846e-01 -7.78318763e-01
   1.01891503e-01  1.11622773e-01  4.26164538e-01  5.42968392e-01
   1.67849243e-01  2.38093510e-02 -7.56177306e-01 -2.67022043e-01
   5.60641326e-02 -2.22726226e-01 -4.89371121e-01  7.06549466e-01
   2.92566031e-01  3.49977523e-01  2.61934139e-02 -1.20584480e-01
   2.51521587e-01  3.17169204e-02 -5.07535636e-01  1.57362327e-01
  -1.97022036e-01 -1.69133902e-01 -3.06168467e-01 -4.40351479e-02
  -9.43644285e-01  2.34727964e-01  6.06384575e-01  6.55626118e-01
  -4.76639383e-02  6.05329752e-01 -4.61685471e-02  3.98005731e-02
   1.23650998e-01 -4.34428573e-01 -1.21113801e+00 -2.19774693e-01
   3.41269642e-01  3.89081031e-01 -4.56513971e-01  2.90101975e-01]
 [-2.87873209e-01 -8.93665016e-01  4.31921631e-01 -4.21712138e-02
  -8.00230384e-01  1.89450562e-01  1.64592922e-01  2.62007061e-02
   9.49826837e-02 -1.62157133e-01 -1.92175806e+00  3.57883066e-01
   3.66343886e-01 -4.52641129e-01  3.08363289e-01  6.95711017e-01
   3.80378932e-01 -5.39875999e-02 -1.71307671e+00  2.65577465e-01
  -6.82012022e-01 -2.64341623e-01 -4.89232428e-02 -2.15511665e-01
   2.82680959e-01  3.07295650e-01  1.87517136e-01 -2.89219052e-01
  -4.67026711e-01  3.91107351e-01  3.58825296e-01  5.43593876e-02
  -3.76831181e-02  2.08210409e-01  4.92162228e-01  5.12715936e-01
   2.34607160e-01 -1.22921133e+00  4.80449408e-01  6.13733307e-02
  -2.82005191e-01  2.26029873e-01 -6.76268041e-01 -1.23455584e-01
  -1.23597533e-01  4.54787239e-02  5.52774847e-01  6.54372349e-02
  -1.20769672e-01 -3.94530565e-01 -1.09049998e-01  3.65023389e-02
  -2.45222852e-01 -2.51315273e-02 -3.59363072e-02 -4.25261073e-02
   2.27285340e-01  4.77205932e-01 -5.05537033e-01  3.48750204e-01
   5.48280239e-01  6.61559641e-01 -1.31636575e-01  3.75048220e-01
  -6.27564013e-01  7.40245506e-02 -4.16793883e-01 -8.68297219e-01
   3.66140455e-01 -2.57015765e-01  4.52296913e-01 -1.25531900e+00
   8.47543329e-02  3.18659022e-02 -5.31004250e-01  8.08728099e-01
   1.31071821e-01  4.11030620e-01  6.68909490e-01 -3.57753217e-01
   1.84809640e-01  4.43316311e-01 -3.81108850e-01  6.58443645e-02
  -6.17649734e-01  3.09014805e-02 -6.55136347e-01 -4.25684035e-01
   6.70218766e-02  6.87644660e-01  3.97330523e-01  1.91132441e-01
  -1.64870784e-01  4.34460342e-02 -4.14765984e-01 -3.50927673e-02
   9.72938463e-02  3.38661134e-01 -8.54969382e-01 -2.95263305e-02
   3.85786504e-01  9.13399696e-01 -1.59111321e+00  5.01081236e-02
  -5.87975271e-02  5.68759263e-01 -5.04000932e-02  3.73643577e-01
  -2.12919097e-02 -3.00304145e-01  1.65109709e-01 -2.57467091e-01
  -1.05878103e+00  1.11641787e-01  9.47805941e-01  3.43123019e-01
  -6.40004754e-01  5.50940156e-01 -4.80390280e-01 -7.09304333e-01
  -2.98266411e-01 -1.21960565e-01 -1.11405921e+00  6.03890777e-01
   3.23691487e-01  7.04325095e-04  6.73145056e-01  1.29680425e-01]
 [ 1.39379054e-01 -9.60105658e-02  2.91697741e-01  4.83473092e-02
  -1.89922094e-01 -4.17677797e-02  4.04241644e-02  1.76921114e-02
   1.18125133e-01  1.43102795e-01 -1.06334245e+00  5.99103808e-01
   1.77228495e-01 -3.89951766e-01  4.37952459e-01  6.07434571e-01
   3.99663448e-02 -1.99424654e-01 -1.03741431e+00 -3.96249682e-01
  -8.34058404e-01 -6.68054819e-02 -6.39211297e-01 -8.69290352e-01
   6.91181242e-01  8.17079365e-01 -2.06583574e-01  7.39796311e-02
   7.79700637e-01  9.96532083e-01  7.16143370e-01  2.99633116e-01
   4.32207584e-02  1.52125597e+00  7.38158599e-02 -1.13170132e-01
   1.71574906e-01 -1.78097057e+00  5.21474063e-01  4.08925891e-01
  -1.58701956e-01  2.85273064e-02 -1.53822696e+00 -1.25283048e-01
   5.77632338e-02 -3.53748947e-02  1.00197232e+00  3.75030071e-01
  -1.60781014e+00  1.40778124e-01  9.62598324e-01 -1.33090481e-01
  -7.30515301e-01  1.15084387e-02 -4.15836304e-01 -8.32158983e-01
   3.14885169e-01 -6.57124400e-01 -6.66175961e-01 -2.96621174e-01
   7.41186559e-01  9.06620443e-01 -1.92204881e-02 -2.37857159e-02
  -2.84443796e-01 -2.36269251e-01 -5.55746406e-02 -1.05857110e+00
   4.51721460e-01  8.41993809e-01  3.48792195e-01 -8.04330930e-02
   7.25412726e-01  1.03912577e-02  1.66800618e-01  6.32056594e-01
   7.03295739e-03  3.41144860e-01  6.54460013e-01 -2.50518352e-01
   4.31888849e-01  1.24344490e-01 -8.41535091e-01 -6.02675006e-02
  -8.26116264e-01  4.77093369e-01  2.77365893e-02  2.33246312e-02
   6.19798779e-01 -7.27717280e-02 -6.46543086e-01 -4.24482256e-01
   6.39598429e-01  2.98882765e-03 -5.84000468e-01 -3.70565951e-01
   1.62926205e-02  7.31278509e-02 -4.33688253e-01  7.81740308e-01
   2.41892248e-01  1.16714060e-01 -7.74651349e-01 -4.40902673e-02
  -5.86593747e-01  6.07014060e-01 -3.17375213e-02  2.49998346e-01
  -3.48905735e-02 -2.65587151e-01 -8.19884762e-02  1.58550158e-01
  -7.31400028e-02 -2.95323521e-01  1.14119006e-02 -5.59516251e-01
  -1.61690140e+00  5.42811930e-01 -7.79048443e-01  7.14785755e-01
  -1.00429326e-01 -3.04275215e-01  8.45501050e-02  9.90294635e-01
   8.39412630e-01  1.28272464e-02 -9.37358811e-02 -5.56446075e-01]
 [ 3.42122018e-01  3.00241351e-01  9.94854271e-01  1.41824931e-01
  -9.02563989e-01  7.00075030e-01 -1.98180482e-01 -1.04809543e-02
   3.06436326e-02  3.60300928e-01 -6.60754144e-01 -3.69997740e-01
   4.53407139e-01 -3.05840462e-01  1.85926870e-01  4.19383436e-01
  -9.26284641e-02 -1.39807642e+00 -7.03745186e-01 -1.04199082e-01
  -2.12012857e-01 -2.39404559e-01 -7.57345498e-01 -7.15988874e-01
  -1.85281619e-01  3.64951968e-01  1.09961405e-01 -1.49496421e-01
   1.09694493e+00 -7.11390495e-01  5.65599315e-02  5.13921499e-01
  -1.88176394e-01  1.31083560e+00  1.82669252e-01 -2.96249747e-01
   1.67773277e-01 -1.52515805e+00  3.69695246e-01  6.66590214e-01
  -3.64931226e-01 -2.06919387e-01 -3.31890285e-01 -6.85349047e-01
   1.42183053e+00  4.32826579e-04  5.68584681e-01  6.06693089e-01
  -1.25949085e+00 -2.02313229e-01  1.07154930e+00  1.71717316e-01
  -6.27988279e-01  4.43755426e-02  4.59107310e-01  5.33061326e-02
   5.50659537e-01 -1.01906502e+00 -3.61666292e-01 -5.79491556e-01
   4.41109508e-01  7.95848250e-01 -1.10936403e-01  2.66889691e-01
  -9.03916478e-01 -6.90178514e-01  1.66959435e-01  6.80743933e-01
   2.92180002e-01  1.00086570e+00 -1.17208108e-01 -5.33248127e-01
   3.79181653e-01 -6.05667606e-02  9.91030633e-02  1.05500758e+00
  -1.81076713e-02  4.22010243e-01 -5.60839593e-01 -4.77632195e-01
   3.60116065e-01 -8.25560391e-02 -1.44842851e+00 -2.18765885e-02
  -9.14521575e-01 -1.29571259e+00  1.59706604e+00  3.35304555e-03
   1.09589756e+00 -4.96619195e-01 -5.82715929e-01 -3.21814954e-01
  -2.55425870e-01  1.82047486e-02 -8.35111588e-02 -9.37014967e-02
   1.14470266e-01  4.79871295e-02 -2.51206607e-01  5.88853359e-01
   4.09374774e-01 -9.13103163e-01 -2.01878095e+00 -2.09101178e-02
   1.02671102e-01  3.58163297e-01 -3.65775079e-01  5.87374389e-01
   1.08858533e-02  9.29337502e-01 -7.22706914e-01 -7.89090335e-01
   2.73948479e-02  4.16483730e-01 -2.15298086e-01 -2.43753210e-01
  -9.95167792e-01  4.37878728e-01 -6.30598247e-01  1.13033473e+00
  -3.76349479e-01 -1.32149652e-01 -4.87679392e-01  8.66456032e-01
   8.65061164e-01  1.61080837e-01  5.21574795e-01 -9.84490693e-01]
 [-1.63422838e-01  9.20080021e-02 -5.52081048e-01  1.51084825e-01
  -1.47351056e-01  1.02135360e+00  3.30679528e-02 -5.70757128e-02
   1.09312661e-01  2.54812628e-01  3.92438732e-02  4.87756163e-01
   8.77001822e-01 -1.66232541e-01  7.99232125e-01  7.35337883e-02
  -1.58996210e-01  4.41867076e-02 -8.19315851e-01  6.61221504e-01
  -1.86208516e-01 -1.44141197e+00 -1.05219734e+00 -2.69476771e-01
   2.03173250e-01  9.60910618e-02 -8.25969875e-01 -1.15701348e-01
   8.00646365e-01 -1.97016156e+00 -6.71237409e-01  4.90016669e-01
   2.01748967e-01  5.90995550e-01  8.32926869e-01  3.60661477e-01
   7.02087820e-01 -7.46758759e-01 -1.57939047e-01  5.62070787e-01
  -5.40868402e-01  1.30424762e+00  3.39739382e-01 -7.84683526e-01
  -4.45056707e-01 -6.52499795e-02  1.52293772e-01  1.40966964e+00
  -1.17689371e+00 -1.08362352e-02  1.13860857e+00  1.69384882e-01
  -1.91677250e-02  3.27049084e-02 -5.62293112e-01  8.18707466e-01
  -1.89613982e-03  3.51598144e-01  4.82636482e-01  4.70856637e-01
   8.34186494e-01 -2.98814684e-01 -4.41958848e-03 -7.38726556e-01
  -5.08586287e-01 -2.78636724e-01  4.99971816e-03  1.68983448e+00
   1.87214002e-01  6.47260845e-01 -6.63734198e-01 -5.51677883e-01
  -4.42196071e-01 -3.74942757e-02 -3.10060859e-01  1.02611327e+00
  -1.05278826e+00  3.60209495e-01 -6.68723881e-01 -5.05779505e-01
   6.92176878e-01  4.10450697e-02 -1.90127599e+00 -8.04085359e-02
  -6.05941713e-01  2.63392866e-01 -1.62978768e-01  5.39933324e-01
   1.04848588e+00 -2.64432001e+00 -4.00331467e-01 -3.18363667e-01
   1.12544405e+00  2.08839774e-05 -4.92100000e-01  3.75630558e-01
   5.33159912e-01  2.75286138e-01 -1.16102242e+00 -1.54844627e-01
  -2.07361683e-01 -8.95055056e-01 -5.66440880e-01 -4.42063175e-02
  -4.58512902e-01 -3.10330302e-01 -3.05846661e-01  1.85524419e-01
   2.87868083e-02 -1.78261489e-01 -6.02895498e-01 -3.87440622e-01
   1.50457397e-01  1.54379427e+00  1.18476190e-01  4.03593302e-01
  -7.95419693e-01  3.84330779e-01  6.08772218e-01  4.90282327e-01
  -5.06077766e-01 -1.63788483e-01 -8.17542791e-01  1.14553356e+00
  -6.25313938e-01  4.99341190e-02 -2.96263039e-01 -8.17644060e-01]
 [ 7.17313349e-01 -3.55834663e-01 -3.16452950e-01  5.88505268e-01
  -2.31655374e-01  6.81128085e-01  2.14603096e-01  1.87336747e-02
   4.42225486e-02  1.72461048e-01  3.47012967e-01  3.52331400e-01
   1.02421713e+00 -1.72468439e-01 -5.57900786e-01  6.49817884e-01
   1.35224564e-02 -4.74955374e-03 -2.63556093e-01  1.13036895e+00
   1.04412802e-01  1.88924861e-03 -5.49723983e-01 -3.19637984e-01
   3.12544912e-01  2.51328588e-01 -2.66329516e-02  6.95923939e-02
   6.84119761e-01 -7.20561326e-01 -7.74173215e-02  4.94937599e-01
   1.45493603e+00  5.83339855e-02 -1.90714866e-01 -1.12188888e+00
   5.66496491e-01 -2.99716979e-01 -2.17512161e-01  4.02828127e-01
  -3.94962609e-01  4.41021085e-01 -6.81449592e-01 -8.07443976e-01
  -7.12673485e-01  5.83020374e-02  3.67870778e-01  1.24869752e+00
  -5.60077608e-01 -2.34662995e-01  9.27083969e-01 -4.85162854e-01
   2.20198080e-01  4.18881886e-02 -1.71742648e-01  2.70948410e-01
  -1.57122165e-01  6.78820431e-01 -2.93757886e-01  8.19150388e-01
   1.20545588e-02 -2.01355547e-01  1.28041595e-01 -4.07706708e-01
   1.59694999e-01  2.05956787e-01 -1.95657492e-01  2.48350367e-01
   6.11969829e-01  1.06722569e+00 -4.30342436e-01  1.06461811e+00
  -6.69012129e-01  5.99249676e-02 -7.08569527e-01  4.19249743e-01
  -1.59499145e+00 -5.28326631e-01  1.93871960e-01  3.56617719e-02
   1.27047932e+00  1.01609126e-01 -3.40420127e-01 -3.79334278e-02
  -9.61758614e-01  1.03328693e+00 -3.93006086e-01  4.99870181e-01
   8.55220437e-01 -7.43794441e-01  3.67519259e-02  1.59455538e-01
   8.56691599e-01 -2.43243910e-02 -3.71596575e-01 -1.46304250e-01
   4.72191095e-01  7.85338104e-01 -5.06311119e-01 -5.29052615e-01
  -2.54987210e-01 -8.75041902e-01  8.85021448e-01 -1.09054968e-01
  -1.35991678e-01 -9.42484364e-02  1.88656256e-01 -3.21372181e-01
  -9.42628458e-02 -5.42909503e-01 -5.43261945e-01 -1.36497274e-01
  -1.67118952e-01  6.44912422e-01  2.69530028e-01 -2.49713752e-02
  -4.22599703e-01  6.53412521e-01 -1.24752857e-01  8.08576643e-01
   3.99688393e-01 -4.66506273e-01 -2.92545438e-01  5.74741721e-01
  -6.79021537e-01 -6.52864099e-01 -6.39977634e-01  1.76948607e-01]
 [ 6.76602840e-01 -4.83048074e-02 -6.79360628e-01  5.06075382e-01
  -2.64882147e-01  9.81475413e-02  4.86810878e-03 -5.44190221e-02
   1.93492742e-04  3.32866341e-01  5.65204263e-01 -1.07782707e-01
   5.24734914e-01  3.30755621e-01 -1.05235589e+00  4.65749294e-01
   2.27685139e-01  1.36482656e-01  1.34348556e-01  1.44000649e+00
  -5.09816170e-01  5.06788492e-01 -5.15522063e-01 -1.75491065e-01
   5.97012103e-01  1.89863443e-01  4.48947214e-03 -3.98203246e-02
  -1.20094836e-01  5.70149899e-01 -9.09429193e-02  8.58998656e-01
   1.05183911e+00  2.73606271e-01 -3.53598863e-01 -5.88710368e-01
  -1.71400711e-01  3.77369583e-01 -1.66718572e-01 -8.33546445e-02
   7.09404171e-01  1.20591074e-01 -7.51239777e-01 -7.67309189e-01
  -9.06644985e-02  1.71451420e-02 -3.08891624e-01  7.47176945e-01
  -1.23865061e-01 -3.63944322e-01  1.02870142e+00 -7.71099865e-01
   4.30265725e-01 -7.60766789e-02  6.55397251e-02  3.09622139e-01
  -1.33158043e-01 -1.09080985e-01  1.04416347e+00 -1.46363854e-01
  -3.87220681e-01 -4.81294781e-01  2.28239879e-01  1.52022794e-01
   8.11367035e-01  7.83458471e-01  2.01081559e-01  5.16203761e-01
   4.42465037e-01  7.60687232e-01 -8.91912803e-02  1.07449365e+00
  -1.01433563e+00  3.28730792e-02  8.74948576e-02 -2.20747620e-01
  -9.30621326e-01  9.52217728e-02 -4.08376157e-01  2.91460693e-01
   1.20348144e+00 -5.44578955e-02  4.98190701e-01  2.66848654e-02
  -2.20115483e-01  1.13579500e-02  1.04799382e-01 -1.25967730e-02
   2.63122231e-01 -3.06754440e-01  2.84078449e-01  2.16260403e-02
   1.14408517e+00  7.38788769e-02  7.69281164e-02 -1.21010818e-01
   2.72932023e-01  2.04996482e-01  3.01622629e-01 -1.25706267e+00
  -2.43064091e-01 -7.53225565e-01  4.01525587e-01 -1.30481850e-02
  -2.64662653e-01 -5.43711483e-01  4.18310702e-01  2.28916973e-01
  -1.92136914e-02 -1.32829159e-01 -1.75152153e-01 -7.43992031e-01
   5.48972309e-01 -3.18469107e-01  1.91448107e-01 -1.27347994e+00
   4.78407694e-03  3.36466968e-01  7.90730298e-01 -2.56400257e-02
   1.44447207e+00  2.18300551e-01 -3.20753664e-01  1.26217544e-01
  -2.38488317e-01 -1.50244623e-01 -1.85565695e-01  6.90992832e-01]
 [-3.10168356e-01  4.95832533e-01  4.58589524e-01  1.31131351e-01
   9.24528956e-01  6.17672741e-01  2.17258483e-01 -8.28550905e-02
   7.05304295e-02  4.66340691e-01  2.55549818e-01 -2.63368160e-01
  -7.44350195e-01  4.25855875e-01 -3.78339887e-01  2.26414606e-01
   5.85442722e-01 -4.23714817e-01 -2.26029426e-01  3.99663113e-03
   7.59954453e-02 -1.05084383e+00  6.48712397e-01 -2.49540433e-01
   2.19980702e-01 -2.09203228e-01  3.76287512e-02  7.76677802e-02
  -3.02201360e-01 -2.93551117e-01  2.96838641e-01  1.56540290e-01
  -5.89933157e-01  9.84010041e-01  4.40238714e-01  4.79179621e-01
  -3.76679718e-01 -6.20273352e-01  2.51557767e-01  3.24611962e-02
   8.21067274e-01  3.90621960e-01 -4.57181364e-01 -6.60123229e-01
   5.21514535e-01 -4.10746261e-02 -3.68833631e-01 -5.36038816e-01
   3.57532620e-01  1.20062474e-02 -1.85045004e-02  5.03475547e-01
   2.20952094e-01  7.26066297e-03  9.58947837e-02  1.76583119e-02
  -1.50836200e-01  1.32123113e-01  1.15715456e+00  3.58049087e-02
   5.99787645e-02  4.76399451e-01  9.07799751e-02  3.37039918e-01
   2.91537702e-01  9.27959621e-01  9.83235985e-02  1.03493854e-01
  -3.53812784e-01  2.31368840e-02  2.21111044e-01 -1.63867009e+00
   1.42025918e-01  5.46420738e-02  2.51500934e-01 -2.50031024e-01
  -2.39762783e-01  4.88583185e-02 -4.36504990e-01  7.21173823e-01
   5.55080175e-01 -2.09921956e-01  8.08648229e-01  4.31052595e-03
   2.63959110e-01 -1.41273245e-01  1.47248790e-01 -1.47408843e-01
   2.88720459e-01 -9.81959462e-01  5.77811658e-01  2.82940328e-01
   3.25367212e-01  7.46648535e-02  4.24951643e-01 -4.45143551e-01
   3.39622051e-01  4.83253561e-02 -6.53306246e-02 -9.97444570e-01
  -5.43158472e-01  2.33803257e-01  8.08662117e-01 -2.08125059e-02
   4.45221476e-02 -7.36721754e-01  3.59816067e-02 -4.75324512e-01
  -1.34131119e-01  1.35237008e-01 -3.78525853e-02 -6.81186318e-01
   8.06312442e-01 -2.32519209e-01  6.16734862e-01 -3.56587291e-01
  -7.28586614e-02 -1.62747145e-01 -1.53456628e-01 -8.65431309e-01
   7.88044810e-01  4.69023317e-01  3.74092370e-01 -3.21095407e-01
   1.22417986e-01  4.44261879e-01  3.97782028e-01  2.38836214e-01]
 [ 3.31274688e-01  4.62194681e-01 -4.82216626e-01  2.28198037e-01
   1.17307746e+00  5.24986302e-03 -3.26873004e-01 -1.41431307e-02
  -3.21193249e-03  1.19235909e+00 -2.11672127e-01  5.05823977e-02
  -4.25647885e-01  4.16734606e-01  4.81776685e-01  4.00334328e-01
   2.80370265e-01  8.51658657e-02  3.73742759e-01  4.47688103e-02
   9.79393899e-01 -2.38277286e-01 -2.65617698e-01 -7.18034923e-01
  -2.80881226e-01 -5.98499626e-02  3.57185572e-01 -2.24699266e-02
  -5.46129405e-01 -1.62653208e-01 -2.30286002e-01 -1.10399686e-02
  -1.32839012e+00  1.79648414e-01  5.17770529e-01  3.28833163e-01
  -2.04059625e+00 -1.37717411e-01 -2.86875479e-02 -6.01062953e-01
   1.12430942e+00  6.39241576e-01 -5.65104000e-02 -8.89145792e-01
   2.62795180e-01 -6.24905936e-02  2.83468187e-01  8.05048883e-01
   7.68851161e-01 -4.78142232e-01  1.47071958e-01  7.72781610e-01
  -4.42820787e-01  6.65370002e-02  3.92772317e-01 -2.59492602e-02
  -5.86821325e-02  4.10724312e-01  3.57427716e-01  2.53262550e-01
   5.07760584e-01  2.40831394e-02  1.05802983e-01  2.90891439e-01
  -8.67885888e-01  6.52898431e-01  1.91670805e-01  4.99800146e-01
  -3.87658805e-01  2.03311041e-01 -2.15137079e-01 -3.85449111e-01
   1.75371960e-01  3.97130847e-04 -6.58874631e-01 -7.72737861e-01
  -9.38693643e-01  5.35525918e-01 -1.70746759e-01  5.65380812e-01
  -1.06002338e-01  1.83979813e-02  1.54367447e-01  4.45397943e-03
   7.51094967e-02  1.22461326e-01 -3.58377576e-01 -5.78074753e-01
   1.72028720e-01 -6.58075929e-01  3.41572642e-01  3.19223970e-01
   5.58874846e-01 -4.58323322e-02  7.13703111e-02  2.38008887e-01
   5.49480207e-02 -1.24083221e-01  1.07502215e-01  3.28848898e-01
  -6.33224726e-01  3.57398167e-02 -2.44592160e-01 -3.19135562e-02
   5.77109337e-01 -1.77457571e-01  5.50155461e-01  4.12816852e-01
  -3.82813625e-02  5.03483713e-01 -5.65208197e-02 -8.76660347e-01
   7.59270549e-01  8.91124383e-02  2.67991483e-01  1.49551570e-01
  -1.97788656e-01  1.03387441e-02  7.57371247e-01 -3.56229782e-01
  -3.30387056e-01  5.22462964e-01 -1.88466042e-01 -4.93645698e-01
  -5.81312068e-02  4.59301412e-01  5.44725716e-01 -2.16241255e-01]
 [-2.07069367e-01  5.04578471e-01 -1.63447022e-01  3.99857193e-01
   1.12513280e+00 -1.80460259e-01 -4.49536443e-01 -1.57018397e-02
  -4.61911596e-02  1.28517962e+00  5.29060960e-01  2.30786756e-01
  -7.13861406e-01  5.69882095e-02  1.27131355e+00  5.72171926e-01
  -1.24756515e-01  2.22249731e-01 -5.86984046e-02 -2.10872963e-01
   1.27105558e+00  5.63150823e-01 -1.84714556e+00 -1.16030216e-01
  -6.15338862e-01  3.80318254e-01 -1.00674748e-01 -6.65222257e-02
  -7.33580291e-02 -1.76764503e-01 -4.50704336e-01 -3.68408024e-01
  -4.81251150e-01 -3.04283321e-01  6.76133752e-01  6.52070403e-01
  -1.63293684e+00 -1.03227675e-01 -1.31927565e-01 -1.68011725e-01
   1.41933405e+00  4.92138475e-01  9.22785878e-01 -1.20410584e-01
   7.52985597e-01 -7.68271238e-02  5.49749613e-01  8.35754812e-01
   5.33553995e-02 -9.16375279e-01 -6.91744626e-01  3.95171434e-01
  -2.56773800e-01  7.58895949e-02  1.52252451e-01  4.41518128e-01
   2.53611743e-01 -7.46996328e-02  6.98019087e-01  5.86731136e-01
   5.38224578e-01  7.19596088e-01  3.55820179e-01  1.40567696e+00
  -3.08353782e-01  2.39556786e-02 -1.46904230e-01  1.09955823e+00
   4.70495690e-03  6.18723452e-01  1.23534370e-02 -2.46346205e-01
   2.13672474e-01 -5.13067544e-02 -8.51129115e-01 -4.18287784e-01
  -4.93535191e-01  7.39744186e-01  6.86506331e-01  3.05466861e-01
  -5.76493204e-01  4.09269892e-02 -5.09423137e-01  1.51287019e-03
   5.87459430e-02 -6.31973296e-02 -4.52251643e-01  7.13967234e-02
   1.96638420e-01  4.59065229e-01  2.37768982e-03 -3.74505520e-01
   3.28305781e-01  6.38952777e-02 -7.28235394e-02 -8.56503695e-02
   2.04468399e-01 -3.75396609e-01  7.54940733e-02 -7.07188472e-02
  -3.37799817e-01 -4.90731955e-01 -6.38983428e-01  7.99588766e-03
   3.97684664e-01 -3.53769623e-02  9.37494874e-01 -3.28719079e-01
  -1.00448146e-01  1.41379714e-01 -6.63144607e-03 -2.82830238e-01
   1.05444300e+00  8.30291867e-01 -4.43622738e-01  5.73124766e-01
   9.35989767e-02  3.79662991e-01  1.39739335e+00 -4.83222939e-02
   7.75422715e-03  2.47691069e-02 -3.51087809e-01 -2.85956919e-01
  -3.12458146e-02 -4.16545570e-02 -3.80121291e-01 -6.09392285e-01]
 [-2.61397392e-01  3.02818716e-01 -8.49593282e-01  1.22139469e-01
   1.19975485e-01 -5.13900101e-01 -1.01589151e-01  3.51536274e-02
  -8.03973302e-02  1.01985022e-01  2.33980834e-01 -2.37627625e-01
   1.75188929e-01  1.33257173e-02 -3.17611605e-01  1.83030441e-01
  -1.32777706e-01 -1.59310922e-01 -1.16580695e-01  6.04899116e-02
   7.16590369e-03  1.02673627e-01 -1.21158266e+00 -4.05115068e-01
  -2.40577653e-01 -3.50594223e-01  4.36147526e-02 -7.83263966e-02
  -9.20540988e-02  5.61564803e-01  8.99757538e-03  2.97243774e-01
  -8.91102571e-03  1.12848058e-02  2.78685063e-01  3.62479061e-01
  -7.58093774e-01 -8.94751586e-03 -6.75649717e-02  1.01477838e+00
   1.04589236e+00  2.75224179e-01 -1.51874259e-01 -1.33583263e-01
  -2.98964642e-02 -6.45224676e-02 -3.52416635e-01 -1.19596861e-01
  -7.21975341e-02  3.31863225e-01 -2.16134712e-01  1.52844697e-01
  -3.07495475e-01 -2.50335634e-02  1.32593229e-01  2.48816654e-01
   2.52794415e-01 -1.75159574e-01  4.68165487e-01 -3.58269095e-01
   4.91124541e-01 -1.05481641e-02  1.96530908e-01  7.51574993e-01
  -5.42808056e-01  4.66930926e-01 -4.54256356e-01  3.02183479e-01
  -3.81561428e-01 -7.25993276e-01  5.72953485e-02 -7.23711327e-02
   9.27631855e-02 -3.84214483e-02  1.06722035e-01  4.71463650e-01
  -1.10683239e+00  9.23256755e-01 -1.49891078e-01  2.86776602e-01
   5.39780594e-02 -5.22537716e-02 -6.94478273e-01 -3.12951915e-02
  -2.18153253e-01 -1.19810425e-01 -5.53976059e-01  1.54799134e-01
  -4.46203530e-01  7.16714188e-02  2.40072757e-01 -5.22759199e-01
  -8.84282365e-02  2.66579464e-02  2.74755299e-01  3.94924991e-02
  -8.54636654e-02  5.20804167e-01  2.86612008e-02 -1.34338260e-01
  -2.98596025e-01 -3.42482716e-01  1.91977128e-01  5.43222204e-02
  -3.45600814e-01  7.36417919e-02 -7.85684347e-01  2.31932461e-01
  -4.16350998e-02  1.61322430e-02 -6.12675846e-02 -3.75494868e-01
  -2.52457410e-01  6.67749822e-01 -5.88066399e-01  7.43755162e-01
  -2.18522668e-01 -2.92622894e-01  1.27085733e+00 -8.38283896e-02
   1.89221680e-01 -9.76235420e-02  7.21025467e-03  3.45613092e-01
   1.02726758e-01  9.42189246e-02 -6.15849271e-02  4.41858917e-02]
 [ 2.65457451e-01  5.96699893e-01 -4.13909644e-01 -4.90907431e-02
   1.82232082e+00  3.53864312e-01 -3.44281364e-03 -5.20967394e-02
   7.21188113e-02  3.04499567e-02  1.92944646e-01 -6.15696236e-02
   3.32380086e-01 -1.20829649e-01 -1.63818908e+00  2.85789013e-01
  -2.62043059e-01 -9.21619013e-02  9.93550718e-02  8.31859648e-01
   3.82873192e-02  7.86811292e-01 -7.07827330e-01 -3.25143427e-01
   5.57981841e-02 -1.49096372e-02 -9.18842852e-01 -3.73337083e-02
   7.44720578e-01  2.79050827e-01 -2.19143823e-01 -1.13774136e-01
  -3.58110219e-01  6.24787450e-01  8.41984451e-01  3.97938579e-01
   1.48217809e+00 -4.57345515e-01  7.57385075e-01  8.95208955e-01
  -3.43654096e-01 -4.72859055e-01  4.22501832e-01 -2.26460606e-01
  -4.73093353e-02  6.07746169e-02 -8.24225843e-02  9.73306537e-01
  -1.38004988e-01 -2.48598401e-02  5.88578284e-01 -8.34156394e-01
   4.72516477e-01  5.76249585e-02 -6.77964985e-01 -1.96457148e-01
   3.98451388e-01 -3.99877101e-01  7.70982802e-01 -7.21490264e-01
   4.11410362e-01  6.52810156e-01 -1.28484815e-01  1.40695348e-01
  -5.76024294e-01  4.03374523e-01 -1.33652121e-01 -9.71272811e-02
  -4.99294788e-01  4.39453155e-01 -7.43539408e-02 -1.17556028e-01
  -8.14694047e-01 -6.38861060e-02  3.79399173e-02  6.92036211e-01
   4.01098505e-02  2.63678581e-01  4.13245082e-01  5.43224752e-01
   7.61142969e-02  3.19777336e-03 -9.93380785e-01 -2.86196768e-02
  -3.40894103e-01  2.28943005e-02 -1.18429172e+00  7.91036636e-02
  -6.37221873e-01  3.33646685e-02 -8.12488437e-01 -2.44717896e-01
   1.48937297e+00  8.26640427e-03  3.81335020e-01 -3.67395882e-03
  -4.93051820e-02 -9.77483690e-01  7.00618267e-01 -6.75422192e-01
  -6.44528866e-01 -3.14931050e-02 -3.82231802e-01 -4.69844006e-02
  -5.33924222e-01 -3.31913754e-02 -8.25645208e-01  4.04474378e-01
   1.96491510e-01  2.69982740e-02 -3.16658244e-03 -3.49449396e-01
  -3.87268692e-01  9.08761978e-01 -6.37179792e-01  2.09679976e-01
  -1.56999275e-01 -2.77487580e-02  1.54830325e+00 -2.67591894e-01
   8.44247997e-01  6.17801428e-01  2.34809250e-01 -5.16146779e-01
  -1.42400920e-01 -1.35021079e-02  1.32498610e+00 -4.20104980e-01]
 [-1.89255685e-01  6.83183670e-02 -1.23522446e-01  2.76389741e-03
   3.85590851e-01  2.80272573e-01  1.54530108e-01  4.12931144e-02
  -4.58643138e-02  1.25531673e-01 -8.01042914e-02  2.48966739e-02
   8.71247172e-01 -1.08160488e-01  9.78840068e-02  3.68696541e-01
  -2.86437303e-01 -1.70575872e-01 -3.41201723e-02  2.92788386e-01
   5.95664270e-02 -5.77066779e-01 -8.80055726e-01 -1.75398737e-01
  -1.09205268e-01  7.68700317e-02  3.68617773e-01  3.54552642e-02
   9.21531320e-01  5.06860137e-01 -1.45708501e-01 -1.62565082e-01
  -5.05239010e-01 -4.37029243e-01  7.05827177e-01 -6.57832697e-02
  -3.51559788e-01 -3.38594019e-01  7.92606592e-01  1.05209935e+00
   7.14239836e-01 -5.01424253e-01  3.00135463e-01 -7.06351638e-01
   3.81961852e-01  6.78871199e-02  7.12159216e-01  8.66921365e-01
   4.67754841e-01 -3.75892192e-01  3.47054273e-01 -7.83979371e-02
   2.49602407e-01  3.59028131e-02 -3.71084392e-01 -2.03049794e-01
   2.58725584e-01 -2.89778322e-01 -7.87603483e-02 -3.57074797e-01
   1.53154865e-01 -1.87584907e-01  6.56681210e-02 -3.44925374e-01
  -7.44002938e-01  2.34339964e-02  7.04221129e-02  1.16365480e+00
  -5.27333438e-01 -6.31862044e-01  2.10532337e-01 -1.43629819e-01
   2.30121732e-01  2.84066498e-02 -2.19833236e-02  8.73769581e-01
  -5.40475845e-01  3.13757241e-01  2.13997573e-01  2.25471571e-01
   2.67340183e-01 -1.14515275e-01 -1.36408019e+00 -5.03779352e-02
  -3.02279353e-01 -1.08164232e-02  3.10669541e-01 -6.51026785e-01
  -9.51933637e-02 -3.23659688e-01 -5.11675358e-01  5.04137993e-01
   9.72754240e-01  7.19205365e-02  1.05190478e-01 -1.64141178e-01
   2.15812624e-01  3.94146651e-01  1.64369571e+00 -5.56177855e-01
  -4.53623563e-01 -8.63393992e-02 -7.38883376e-01 -2.67539471e-02
  -1.98871508e-01 -7.27274269e-02 -3.59603524e-01  9.89105999e-02
  -1.29056245e-01 -1.66459039e-01 -1.86872438e-01  2.53008485e-01
  -4.19189215e-01  5.75588793e-02 -1.24595262e-01  4.12005842e-01
   2.48511136e-02  2.41179213e-01  4.08714741e-01 -7.54073441e-01
  -2.22176909e-02  1.90074131e-01  3.97766918e-01 -2.05402508e-01
   7.58382538e-03 -3.54162753e-02  1.13579333e+00  2.71248370e-01]
 [-2.28951484e-01  1.22403661e-02  2.18656942e-01 -1.18449084e-01
   9.99414504e-01  2.38099188e-01  2.04413474e-01 -6.07400611e-02
  -9.21378955e-02  1.13753200e+00 -6.17445648e-01 -3.05444479e-01
  -5.68744004e-01 -1.78196371e-01 -9.39285934e-01 -2.85520162e-02
   3.31097662e-01 -6.04356945e-01  1.63377643e-01  3.19425881e-01
   1.38894117e+00  4.60429281e-01  1.32504374e-01 -6.29934072e-02
   2.94548005e-01 -2.73645014e-01  3.54858637e-01 -6.85843602e-02
   3.45010072e-01  8.53681087e-01 -1.94317639e-01 -4.91227508e-02
  -7.81353295e-01  2.74853289e-01  3.90307039e-01 -3.20723563e-01
  -5.42570651e-01 -7.82124579e-01  3.10894758e-01 -2.97494471e-01
   5.48269808e-01  2.50291049e-01  3.75505656e-01 -4.66202289e-01
   2.25419268e-01  5.72265014e-02 -4.53289300e-01 -2.99288481e-01
  -1.15396408e-03 -3.86691242e-01  6.70525014e-01 -7.07172155e-02
   6.05331846e-02 -4.65753861e-02 -7.60469139e-01 -3.26164156e-01
  -2.72080511e-01 -1.99237511e-01  7.94721425e-01 -7.53792942e-01
   1.60952568e-01 -1.45366967e-01 -3.29078764e-01  2.05712080e-01
  -3.98979396e-01 -5.73159933e-01  1.75076932e-01  1.30101633e+00
  -1.21213603e+00  1.45018563e-01  1.15496859e-01  1.84245408e-02
   1.22350857e-01  4.03716415e-02  5.76014340e-01 -6.21224999e-01
  -3.02858382e-01  3.82658005e-01 -8.07320178e-01  7.15664506e-01
  -1.52227914e+00 -1.43062592e-01 -7.67215490e-01  6.47939220e-02
  -3.20352912e-01 -1.69487402e-01  3.54829252e-01  5.11729717e-01
  -5.94290979e-02 -3.59379649e-01 -8.79998356e-02 -2.09020570e-01
  -8.03345218e-02  3.50408256e-03  4.97968823e-01  6.19317293e-01
  -3.51419777e-01 -1.65975280e-02  2.26970389e-01 -9.16052282e-01
  -2.19692633e-01 -3.52539361e-01 -9.07121003e-01 -8.72174129e-02
  -6.69524968e-01 -2.86613226e-01 -4.14621204e-01  1.94052622e-01
  -3.81837338e-02 -1.71752661e-01  2.24941839e-02 -6.13799989e-01
  -1.67278331e-02 -2.21029609e-01  3.86782587e-01 -6.78820759e-02
  -7.34245718e-01  4.86874819e-01  2.30204999e-01 -4.63675320e-01
   2.22857192e-01  1.03829011e-01 -1.20665267e-01 -7.45566905e-01
  -2.99435966e-02  5.35194874e-01  1.07834423e+00  6.07128143e-01]
 [-2.41739973e-01 -7.00547770e-02 -1.23599732e+00 -1.18460253e-01
   1.53925776e-01  3.34633231e-01  2.18840152e-01  5.36641385e-03
   8.71609822e-02  3.96001279e-01  8.02368149e-02 -5.47396064e-01
   5.03321469e-01 -2.20413223e-01 -5.89606524e-01 -4.60227042e-01
  -2.65475154e-01 -2.84285665e-01 -7.77931631e-01  2.97852606e-02
  -9.90181625e-01  2.82074094e-01 -1.25536129e-01  3.95516418e-02
   6.92854941e-01  4.93540227e-01  5.30853868e-01 -2.60055661e-02
   5.21547854e-01  3.82025510e-01 -6.35959268e-01  3.31129767e-02
  -5.47248185e-01  1.31228343e-01 -1.76354662e-01 -1.19231418e-02
  -3.50047499e-01 -7.20175385e-01  1.56166907e-02  6.04445711e-02
   4.17731971e-01  1.09191692e+00 -7.23580480e-01 -5.64642668e-01
   7.37660587e-01  5.79018816e-02 -4.95244175e-01 -7.74691641e-01
  -5.17326295e-01  1.30269587e-01  1.48381054e+00  6.47029698e-01
   7.62092248e-02  7.70988688e-02 -2.09358618e-01 -3.34379137e-01
  -5.04519820e-01  3.87402087e-01  2.92771161e-01 -4.20249999e-01
   2.41536424e-02  6.31691217e-01 -4.23661202e-01  2.56183475e-01
  -2.05974221e-01  9.99715254e-02  5.66603482e-01  1.43278316e-01
  -1.06424379e+00  2.40246087e-01 -5.52358478e-02 -1.24415016e+00
   1.43247649e-01  1.56017542e-02  3.64580482e-01  2.51375467e-01
  -6.74969375e-01  1.58291310e-01 -2.20836684e-01  8.28551352e-01
  -9.24722731e-01 -1.04323499e-01  2.52487421e-01 -6.02328479e-02
  -5.87883115e-01 -5.85755169e-01 -3.25923711e-01 -3.84410292e-01
  -1.93503704e-02  5.34493625e-01 -3.35145354e-01 -3.74842256e-01
   4.79562521e-01  3.95590290e-02  3.42130512e-01 -2.02767134e-01
   1.40001148e-01  5.57436287e-01 -3.37420225e-01  2.47392386e-01
  -2.90595442e-01 -1.16573960e-01  2.23457485e-01  9.81736928e-03
  -6.46620274e-01 -7.59771228e-01 -8.44816491e-02 -1.47751260e+00
  -4.94756401e-02 -1.75045684e-01 -1.19609766e-01 -1.11398184e+00
   2.99582243e-01 -1.89906552e-01  6.54883027e-01  1.20342188e-01
  -2.40360629e-02  6.96839690e-02  7.46745825e-01 -1.68913698e+00
  -1.19566634e-01 -3.70914221e-01 -4.07960922e-01  3.22243929e-01
  -3.13517779e-01  3.82580072e-01  6.83416486e-01  4.41676795e-01]
 [-2.14756891e-01 -5.02831340e-01  1.35813639e-01  5.28218687e-01
  -2.88278997e-01  3.54810171e-02  3.57355714e-01 -1.40622079e-01
  -6.97800368e-02  1.50635866e-02  1.97694093e-01 -1.46645248e-01
   2.04340518e-01 -2.78497756e-01 -7.52315223e-01 -8.66784379e-02
  -2.58333795e-02 -1.25693381e-01  2.41973311e-01  4.18422520e-01
   2.74227977e-01  1.89844057e-01  5.30414462e-01  1.10271282e-01
   9.72866774e-01 -3.31900179e-01 -6.08446240e-01 -4.70256582e-02
  -9.85233113e-02  1.05643964e+00 -3.10084093e-02  5.33590674e-01
   4.01640445e-01 -2.56541464e-02 -5.43893754e-01 -8.66803169e-01
   3.75720650e-01  7.27046728e-01  1.64033353e-01  7.29508698e-02
   3.93373042e-01  7.66002476e-01 -3.73096496e-01 -3.71285886e-01
  -6.68323994e-01  6.71804771e-02 -6.21241443e-02 -7.67578542e-01
  -2.48095784e-02  1.05196738e+00  2.03444138e-01 -6.54672682e-01
   9.39763844e-01  2.71043554e-03 -4.41765010e-01 -7.48311102e-01
  -8.37262392e-01 -2.98762530e-01  1.22608073e-01 -2.87207633e-01
   1.49193823e-01 -4.91256714e-01 -1.28343627e-01 -1.45561416e-02
   2.83712745e-01 -2.55867541e-01  5.69165647e-01  2.19817430e-05
   4.64323282e-01 -2.56240219e-01  2.47767265e-03  3.15495849e-01
  -8.08769614e-02  4.48269174e-02  5.87345399e-02 -5.92042319e-02
  -4.51040149e-01 -2.57338256e-01 -4.06782180e-01 -1.17709346e-01
  -4.60259944e-01 -8.53158534e-02 -8.58795084e-03 -3.41995806e-03
  -1.15208375e+00 -2.63576303e-02 -3.07132512e-01  2.73228079e-01
   8.21001232e-02 -3.84040445e-01  3.02584857e-01 -2.73785710e-01
   8.54949772e-01  3.55303586e-02 -3.52412492e-01  2.23710224e-01
   2.78356552e-01  3.32931012e-01 -1.04883045e-01 -5.11006176e-01
  -1.33808449e-01 -5.22620261e-01  5.04599750e-01 -5.70467487e-02
   3.50905269e-01  1.34448707e-01  7.67891228e-01 -7.28775442e-01
   1.03000864e-01  9.20920726e-03 -1.75393268e-01 -7.08383918e-01
   8.27812493e-01 -5.62796474e-01  3.43288988e-01 -8.53020430e-01
  -1.57855883e-01 -1.68037675e-02  1.63206920e-01 -1.13724613e+00
   1.10349143e+00  7.01830149e-01 -7.87665606e-01 -1.84094608e-01
  -7.23728299e-01  1.41584489e-03  8.62842560e-01  3.13158065e-01]
 [-2.06873417e-01 -7.44703859e-02  1.32432565e-01  4.11794871e-01
   1.36489440e-02 -5.07960439e-01  1.67213112e-01 -1.04966583e-02
  -4.16611321e-02 -2.41120175e-01  3.23839068e-01 -1.85588181e-01
   8.24138045e-01 -3.80248204e-02 -5.02099752e-01  2.71514535e-01
   4.15998340e-01  2.81673744e-02 -7.38223970e-01 -8.47982526e-01
  -3.30470711e-01 -4.53543246e-01 -2.41532743e-01  1.76420256e-01
   2.62723684e-01 -1.57388687e-01 -3.91938806e-01  4.52727079e-02
   4.78253514e-01 -1.08187541e-01 -8.06480229e-01  3.65802079e-01
  -6.93852603e-01  2.68394142e-01  5.24566531e-01 -1.24110535e-01
   8.14703345e-01  8.47491324e-01  4.33645070e-01  2.63462037e-01
   5.20657837e-01  2.94224948e-01 -5.15988171e-01 -3.19377810e-01
  -1.02163208e+00  2.78199464e-02 -3.19784075e-01 -7.50398040e-01
   1.61352322e-01  7.00427115e-01 -2.76756138e-01  3.61845553e-01
   4.76827949e-01  6.84691519e-02  6.39185727e-01 -8.36890042e-01
  -8.10628057e-01  9.19517219e-01 -2.14075670e-02  1.15860505e-02
   6.31345034e-01  3.54841761e-02  1.58836737e-01 -5.12408987e-02
  -2.57865731e-02 -5.06452143e-01  3.11351061e-01 -9.82751191e-01
  -1.70365706e-01 -1.78152934e-01 -2.57851094e-01 -5.98087311e-01
  -5.55445291e-02 -3.00412737e-02 -2.22626686e-01  8.18876624e-01
  -2.33994603e-01  6.19089723e-01 -4.90819424e-01 -3.57857257e-01
  -2.43738249e-01 -2.58901149e-01 -8.57042730e-01 -3.39596197e-02
  -1.43319190e+00  2.52840519e-01 -2.13142633e-02  1.04429193e-01
   4.54201043e-01 -4.91593182e-01  7.85115242e-01  1.75340518e-01
  -2.69027829e-01  4.02977467e-02 -2.28607431e-01 -1.39638204e-02
   6.78533316e-02 -1.79302711e-02  2.69203693e-01  3.14915627e-01
  -6.19320691e-01 -6.03526652e-01  6.90604687e-01 -2.64692842e-03
  -5.11818171e-01 -4.46235389e-01  5.28080106e-01  4.33899492e-01
  -1.21847112e-02 -9.90337208e-02 -4.48641211e-01 -2.38445327e-01
   1.11058152e+00  3.77383590e-01  3.13939303e-01 -4.56591249e-01
  -2.06879690e-01  4.16820049e-01  3.14673811e-01 -4.33122545e-01
   2.70849705e-01  5.33601284e-01 -2.45116681e-01 -1.76773906e-01
  -8.93985271e-01  6.23035610e-01  9.61739957e-01 -4.16674435e-01]
 [ 7.31843770e-01  2.44769841e-01 -5.65840721e-01  8.56337696e-02
  -9.01946649e-02 -9.22791004e-01 -7.60121718e-02 -9.13850889e-02
   8.07722062e-02 -7.14148164e-01  3.82136196e-01 -7.65323400e-01
   1.08075254e-02  6.07132837e-02 -3.67892295e-01  3.36792499e-01
  -1.99350685e-01 -1.49520054e-01 -1.13252544e+00  3.27756077e-01
  -7.86004841e-01 -1.10260069e+00 -5.90361774e-01 -1.72895953e-01
  -1.04122639e-01 -2.70576447e-01 -1.12462723e+00 -1.12417676e-01
   1.02902269e+00 -7.19253361e-01 -5.03116906e-01  1.35976478e-01
  -9.48322713e-01 -2.61985987e-01 -3.09287906e-01 -9.95448530e-02
  -3.46479207e-01  4.03217256e-01 -1.21867336e-01  9.58841220e-02
   3.85881253e-02 -8.92618373e-02  8.55014324e-01 -1.89257830e-01
   4.20672238e-01 -8.09701160e-02 -3.65984499e-01  7.27468789e-01
   2.03119591e-01  5.51584840e-01  5.16993463e-01  1.32959306e-01
   4.56724823e-01 -1.98581424e-02  7.08588719e-01 -8.91616166e-01
  -6.13348857e-02 -2.99397588e-01  1.13539167e-01 -5.31264096e-02
   1.78535849e-01  1.19853504e-01 -8.18287209e-02 -4.96233940e-01
  -1.23915464e-01 -4.10905689e-01  4.27636981e-01 -5.97042739e-01
   4.76102382e-02  2.68472195e-01  3.98003161e-01 -1.50829211e-01
  -3.47129524e-01  3.99291441e-02  4.24383990e-02  1.10428087e-01
  -2.48862043e-01  7.00516164e-01 -6.12838924e-01 -1.76632896e-01
   1.52312234e-01 -3.52692068e-01 -9.68810678e-01  2.93472409e-03
  -1.27012467e+00 -2.18495831e-01  3.22864652e-01  2.51006782e-01
  -2.25202814e-01 -1.70388803e-01  3.73359859e-01  2.65607834e-01
  -3.42200279e-01 -8.06247741e-02  2.06958354e-01 -9.21848357e-01
   4.98853810e-02 -3.53509486e-02  1.05792391e+00 -6.78813100e-01
  -2.32951134e-01 -7.12107539e-01 -6.62550390e-01 -6.09158119e-03
   7.17331097e-02  9.02362615e-02  7.12392092e-01 -5.57150006e-01
   3.24855238e-01 -4.54202622e-01 -3.71559858e-01  1.73981443e-01
   6.57387912e-01  5.16265452e-01 -3.83036017e-01  2.07559187e-02
   1.86232254e-01  3.85702670e-01  5.60717285e-01 -1.04221046e-01
   4.75587010e-01  1.24219835e+00 -3.73951584e-01  7.07039982e-02
  -9.88807857e-01  6.82943091e-02 -3.84183437e-01  2.85993934e-01]
 [ 3.22959751e-01 -1.39361888e-01  7.17473447e-01  3.07976127e-01
  -3.77135798e-02 -7.99138904e-01  3.04898471e-01 -4.77346890e-02
  -3.48861441e-02 -7.15986609e-01 -3.97980362e-01 -5.66584885e-01
  -5.27752936e-01 -4.87237163e-02 -5.62072754e-01 -1.27333716e-01
  -2.39593968e-01  4.93760228e-01 -6.16803229e-01  2.74489433e-01
   2.30623692e-01 -2.01448366e-01  1.14462860e-01 -1.98732585e-01
  -2.76320040e-01  8.82475138e-01 -7.45055139e-01 -9.39401388e-02
   2.89928824e-01  2.97012955e-01  2.03379273e-01 -7.49156535e-01
  -2.04359323e-01 -1.30965561e-01 -1.91823067e-03  7.60337859e-02
   5.92783950e-02 -5.08566916e-01  6.32311046e-01 -4.88810331e-01
   6.77272975e-01  4.82965142e-01  1.62847608e-01  5.76204844e-02
   3.25832218e-01  1.57007426e-02  4.77422476e-01  4.41483974e-01
  -4.20078814e-01  6.87888339e-02  8.85822356e-01 -4.06469852e-01
  -2.40768362e-02  1.98887307e-02  3.15904200e-01  8.06326121e-02
   1.09517121e+00 -2.74870217e-01 -1.20195657e-01 -7.34613955e-01
   2.36800523e-04  4.31320034e-02 -9.05112326e-02  3.57948989e-02
  -4.02166933e-01 -2.61260569e-01  3.85516346e-01 -1.13618863e+00
   1.16819501e-01 -1.55351087e-01  6.16670609e-01  2.90465802e-01
   1.89927086e-01  7.49028102e-02  1.14030398e-01  4.84924763e-02
   3.31762075e-01  9.12020206e-02 -1.15508163e+00 -3.62227738e-01
  -5.20253122e-01  2.76485145e-01 -8.67541730e-01 -7.59096518e-02
  -1.44476128e+00 -1.37670696e+00 -4.94209141e-01  6.36125505e-01
  -2.98413664e-01 -8.96785498e-01 -4.06577848e-02  1.42974854e-01
   6.52266219e-02  1.58418566e-02  8.62641037e-02 -7.24130154e-01
   1.63811013e-01  3.89921337e-01  9.09417033e-01 -1.84922308e-01
  -8.46813992e-02 -8.15196484e-02 -2.42659736e+00  4.52800207e-02
   2.89832264e-01  2.30238318e-01  2.38327995e-01  2.59326790e-02
   1.48469388e-01  3.30226898e-01 -5.63209616e-02 -3.96536648e-01
  -2.83598155e-01  1.58070121e-02 -6.69596493e-01  1.57103553e-01
  -1.04652107e+00  3.74391377e-01 -5.94686985e-01  1.70759425e-01
   1.45042524e-01  1.04996800e+00 -1.52289048e-01 -2.11139798e-01
  -5.46055079e-01 -2.48912349e-01  2.19614327e-01 -3.00178438e-01]
 [ 1.81932136e-01 -1.68975547e-01  3.13270032e-01  3.74906927e-01
  -2.69092798e-01 -1.87980279e-01  1.93279639e-01 -4.93950769e-02
   8.88299420e-02 -2.35163242e-01 -3.64348203e-01 -1.11014497e+00
  -1.70489758e-01 -2.39485130e-02 -5.84799051e-01  2.62237221e-01
   3.09930176e-01 -6.28679618e-02 -1.30094355e-02  6.81815088e-01
   2.06803173e-01 -4.90461946e-01  3.86974216e-01  2.66736597e-01
  -2.54892468e-01  2.65312910e-01 -3.00344467e-01 -1.14252582e-01
  -1.68193087e-01  1.59190655e-01  2.91914999e-01  1.44195333e-01
  -3.28786136e-03 -3.91259091e-03  1.97072446e-01  1.31877229e-01
   3.60734344e-01 -5.69775403e-01  1.06833927e-01  7.91004419e-01
   6.84446394e-02 -3.45234036e-01 -4.00430501e-01  9.98231098e-02
   4.10784662e-01  6.51879385e-02  5.31950966e-02 -1.23608828e-01
  -6.70879662e-01 -1.22124210e-01  1.92639790e-02  2.16712415e-01
  -1.76722854e-01 -7.44085386e-02 -4.32025045e-02 -4.81191188e-01
   3.73347789e-01  8.40208292e-01 -7.32981861e-01 -1.14414036e+00
   1.69359624e-01  5.65524399e-01 -1.00966386e-01 -2.49271601e-01
  -3.88219506e-01 -4.48824108e-01  2.03344360e-01 -7.96344578e-01
   5.81005871e-01  1.49608180e-01  2.99927950e-01  6.82317838e-02
  -7.91370645e-02  5.44234887e-02 -1.78703759e-02 -6.44473657e-02
   3.90876919e-01 -2.66745299e-01 -7.97117352e-01 -2.67454237e-01
   1.78135872e-01  2.01066196e-01 -6.57577515e-01 -3.14934663e-02
  -1.02069294e+00 -5.64357936e-01 -8.14146161e-01  5.70266902e-01
   2.70313979e-03 -1.65481851e-01  3.14958364e-01  6.74075037e-02
   4.67019707e-01  4.26593050e-02 -2.86881141e-02  3.83524358e-01
   1.22277454e-01  3.34575057e-01  2.37797990e-01  1.58759490e-01
  -3.03891569e-01 -2.36537792e-02 -1.12591100e+00  1.10632610e-02
   3.66263121e-01  5.41720688e-01  4.24894601e-01  1.29031971e-01
  -1.64152503e-01 -5.34272075e-01  3.31157327e-01  8.44362140e-01
   8.10041185e-03 -4.89435345e-01 -6.89741910e-01  4.59544137e-02
   4.20048609e-02 -2.33346269e-01  1.69945344e-01 -2.16047153e-01
   9.49947119e-01 -3.30410376e-02  6.18266404e-01 -2.99121529e-01
   6.94752336e-02  2.05171347e-01  2.47469887e-01 -5.41261196e-01]
 [-7.57522136e-02 -1.87307701e-01 -3.90984952e-01  2.13927850e-01
  -7.16010779e-02 -4.07356650e-01  1.20948732e-01  7.07714707e-02
   5.18027768e-02 -2.17818040e-02 -1.08157337e+00 -9.13340569e-01
   2.25158289e-01 -1.88280612e-01  6.45762146e-01  5.33678681e-02
   5.76991558e-01  4.87551272e-01  3.61777753e-01  1.08520880e-01
  -3.38486508e-02 -1.05971003e+00  1.08923942e-01  4.85073864e-01
  -2.39906967e-01  2.36487478e-01  7.92963564e-01 -3.41617256e-01
   1.26580328e-01  7.99809992e-02 -1.24284968e-01  6.96858883e-01
  -5.74195459e-02 -2.58925647e-01  6.35620117e-01  5.11675663e-02
   2.77689308e-01 -9.61866230e-02 -2.88246810e-01  4.65043455e-01
  -2.36065060e-01  1.00272372e-01 -1.65777743e-01  1.01863638e-01
  -3.50417979e-02  3.93171944e-02 -4.03654650e-02 -1.24438718e-01
  -3.59957218e-02 -2.18335465e-01 -2.81148136e-01  5.56667030e-01
  -6.13801241e-01 -5.59154637e-02 -7.13302940e-02  3.53735626e-01
  -1.79967120e-01  6.02141500e-01 -1.32645464e+00 -7.03670561e-01
   4.68066894e-02  4.67533171e-01  1.20060313e-02 -5.21751583e-01
   8.38289708e-02 -3.89670551e-01  3.76200497e-01  2.07281616e-02
  -4.61879611e-01  5.49415052e-02  1.17771126e-01  2.40905046e-01
  -3.02130699e-01  5.93596920e-02 -6.81821465e-01  5.50544858e-02
  -1.73136845e-01  2.40122557e-01  3.12613785e-01  9.15092677e-02
   7.77516216e-02 -1.69218972e-01 -7.54629910e-01  5.14194667e-02
  -1.74244237e+00  2.05292292e-02 -8.28469217e-01  2.90529460e-01
  -1.56709068e-02  4.09570672e-02  4.11516786e-01  8.31585765e-01
   1.17340434e+00 -7.49171078e-02 -9.85961407e-02  1.64665312e-01
   2.23532334e-01 -1.07901067e-01 -1.41131580e-01  2.14783207e-01
  -4.60727990e-01  5.89369416e-01 -1.02433431e+00  3.83614264e-02
   1.50186256e-01  4.25774246e-01  9.57788825e-02  3.49312454e-01
  -5.32360226e-02 -5.11789203e-01  6.25013292e-01  5.80966413e-01
  -4.82624441e-01  8.40889215e-02 -2.56898880e-01  4.74884093e-01
   3.97829711e-01 -3.13602924e-01  5.97164750e-01 -1.14744782e-01
  -5.89283630e-02  4.43531238e-02  1.83764193e-02 -2.23975316e-01
  -2.77021140e-01 -1.29828215e-01 -6.48456872e-01 -3.70027840e-01]
 [-1.51031747e-01 -5.30552804e-01 -2.14159470e-02  1.99973434e-01
  -1.50695577e-01 -2.12426763e-02 -2.50229716e-01  8.74317139e-02
  -4.39872108e-02  3.06215864e-02 -4.48699623e-01 -8.13952863e-01
   3.59297067e-01 -2.80247152e-01  1.49905309e-01 -2.34235018e-01
   5.83742454e-04 -2.37245560e-02  7.68813431e-01 -2.28406265e-01
   2.63089150e-01 -3.33165288e-01  2.38247752e-01  4.04489011e-01
   2.23474517e-01  3.85492109e-03  2.49451593e-01  3.00621897e-01
  -5.54039069e-02  2.60453761e-01 -3.93634498e-01  3.83452863e-01
  -1.40716895e-01 -5.29430881e-02  5.85456312e-01  2.36820113e-02
   5.60410261e-01  6.58850744e-02 -1.06153805e-02 -3.38720918e-01
   1.57868221e-01  3.80409718e-01 -3.75786006e-01  7.95219913e-02
   3.66663277e-01 -7.66813383e-02 -1.12436488e-01 -1.20473094e-01
  -5.39065190e-02 -2.48604923e-01  1.15237027e-01  2.56071925e-01
  -9.04696226e-01 -7.72339776e-02 -6.61235869e-01  1.85959131e-01
   1.34698316e-01  2.53440529e-01 -1.13756382e+00 -9.92400348e-02
   8.54438007e-01 -1.82645191e-02 -4.91145223e-01 -2.20221460e-01
  -1.13585234e-01 -1.73145533e-01  1.98295359e-02  1.41090140e-01
  -2.53429651e-01  2.36834601e-01  1.38611972e-01 -1.10729290e-02
   4.40270513e-01 -5.41852303e-02 -8.00871313e-01  4.65175480e-01
  -3.60784829e-01  2.25085810e-01  4.94140923e-01  4.51079905e-01
   5.72515309e-01  2.74052527e-02 -8.36479485e-01 -3.55204754e-02
  -4.89540398e-01  2.39914376e-02 -6.18517816e-01 -2.71919519e-01
   1.01302765e-01 -6.47048593e-01  6.45088434e-01  2.43007064e-01
   7.43001580e-01  3.61625180e-02 -6.06449246e-01 -7.42330924e-02
  -3.13326389e-01 -7.34978318e-01  5.55387661e-02 -3.85614485e-01
   1.36770204e-01 -3.01489681e-01 -1.14116061e+00 -7.11359531e-02
   1.86110750e-01  1.95670411e-01  3.19018364e-01 -3.96559313e-02
  -1.34616405e-01  5.84294915e-01 -3.28510582e-01  7.95877218e-01
  -5.52641332e-01 -2.60081708e-01  3.00396293e-01  1.53151229e-01
   4.84448880e-01 -2.97118481e-02  3.70321631e-01  8.69790375e-01
  -2.18630329e-01  4.68570858e-01 -6.72518432e-01 -4.47996944e-01
  -2.30000883e-01 -1.43137872e-01  4.24567848e-01 -4.85749058e-02]
 [-1.94134757e-01 -7.77283907e-01 -5.07281005e-01 -1.69337541e-01
  -5.92584252e-01  5.59235632e-01 -2.39458606e-01 -1.97796989e-02
   1.11928787e-02 -6.06426708e-02  4.31220382e-01 -1.44247949e-01
   1.85423985e-01 -2.18202144e-01 -2.03590184e-01 -5.60642928e-02
   4.79841679e-01  1.31315827e-01  4.98405784e-01  8.28889571e-03
   3.63758177e-01  1.52805954e-01  4.22809459e-02  1.10477664e-01
   2.56997615e-01  1.23051383e-01 -1.61904961e-01  8.38790908e-02
   1.12657867e-01 -1.31271526e-01  3.27234268e-01 -1.06275119e-01
   2.66388029e-01  4.75314975e-01  2.56217062e-01 -2.19468623e-01
   1.41611129e-01 -1.36902615e-01 -2.65820473e-01 -5.36595106e-01
  -1.00278690e-01  1.31282061e-01 -4.08324152e-01  2.05915555e-01
  -7.54969893e-03 -3.20931710e-02 -2.43263245e-01  5.60264289e-02
   2.18847338e-02  5.00875354e-01  2.89028704e-01 -3.58394757e-02
  -8.24302375e-01  6.99314661e-03 -3.25005651e-02  3.68612707e-01
   5.81411459e-02 -2.62930512e-01 -6.36756003e-01  2.58106828e-01
   7.03053832e-01 -4.19347659e-02 -1.30175561e-01  1.53076565e-02
   5.64257324e-01 -5.48880026e-02 -3.92892748e-01  2.33221143e-01
   2.86317408e-01  2.66207963e-01  1.13181621e-01  1.01152875e-01
  -1.49042711e-01 -3.35407145e-02 -2.59838939e-01  3.02347958e-01
   1.41349107e-01  4.38789241e-02  5.21295786e-01 -1.21823266e-01
   5.80548286e-01  8.70780349e-02 -3.28769714e-01 -2.56183930e-02
   6.98120147e-02  5.61050400e-02  3.72839749e-01 -2.06754103e-01
  -6.29698187e-02 -9.36398804e-02 -1.27671033e-01  8.00610706e-02
   7.07297444e-01 -7.02196509e-02 -9.85833228e-01 -6.41201019e-01
   1.55094609e-01 -8.61218154e-01  2.74730414e-01 -3.25734675e-01
   4.05742705e-01 -6.79901779e-01 -8.72940660e-01 -5.56516908e-02
   2.16827527e-01  1.10814303e-01  1.22610055e-01 -1.50312826e-01
  -1.54868096e-01 -2.34326534e-02 -2.43917890e-02  5.21579087e-01
  -4.12665367e-01 -2.00531840e-01  8.01904649e-02 -5.37954085e-02
  -5.23804009e-01  1.35248035e-01  3.73410523e-01 -1.43415809e-01
  -6.12267792e-01 -9.29980911e-03 -5.52605353e-02 -7.33042285e-02
   4.87620652e-01  2.05432281e-01 -5.12537181e-01  4.22064394e-01]
 [ 1.65784061e-02 -2.63292193e-01 -3.65133584e-01 -2.40349039e-01
   1.04437411e-01  4.33505774e-01 -1.48853973e-01  4.70086932e-02
  -3.91924083e-02 -2.55788136e-02  2.09183127e-01 -5.66890603e-03
   9.67711359e-02 -3.37552339e-01  2.13947762e-02  7.22850487e-02
   2.38286734e-01 -6.16714120e-01 -1.73791036e-01  2.39148438e-01
  -7.50782266e-02  3.26521873e-01  1.36065990e-01  2.07527339e-01
   2.03349218e-01  2.76297957e-01  1.45853981e-01  2.93188971e-02
  -1.76933676e-01  4.82317716e-01 -5.77277094e-02 -3.85722965e-01
   3.14151764e-01  2.91791782e-02 -7.95113221e-02  6.90575913e-02
   8.32351148e-02  3.86532992e-01  2.69116819e-01 -4.03491706e-01
  -3.03436786e-01 -3.88863869e-02 -3.48855615e-01  1.69007555e-01
  -3.41004938e-01 -3.01152691e-02 -1.73680320e-01 -4.94969189e-02
   6.15441687e-02  2.03417122e-01  4.33651179e-01 -2.40612775e-01
   1.79751411e-01  5.26973084e-02  1.31899789e-01  1.34210870e-01
  -5.56870475e-02 -1.98117405e-01 -2.27487639e-01  1.76916629e-01
   5.17071128e-01  3.55688006e-01 -4.46474075e-01 -9.44269598e-02
  -1.77949872e-02  5.60312927e-01 -4.20541108e-01  5.59590340e-01
   2.25806758e-01  2.39769414e-01  8.32983553e-02 -4.19911444e-01
  -2.38474309e-01 -8.23422447e-02 -3.48585635e-01 -3.10965657e-01
   3.64100635e-01  1.13413967e-02  2.15914518e-01 -2.98951715e-01
  -6.45469949e-02 -3.15182507e-01  2.17522904e-02 -9.84815415e-03
   2.93562114e-01 -1.47999674e-01  6.57980666e-02  1.85950279e-01
   5.05616248e-01  4.12370384e-01 -1.70780569e-02  1.14538454e-01
   4.50570844e-02 -3.82376574e-02 -1.13312984e+00 -6.19685769e-01
   1.73357368e-01 -2.13676378e-01  3.41013491e-01  2.30832517e-01
   4.30925220e-01  1.28849328e-01 -7.78543577e-02 -2.47520674e-02
   3.17243129e-01  1.05185345e-01  3.66383642e-01  4.36717495e-02
  -1.53216064e-01 -6.70813739e-01  1.33114785e-01  1.46081656e-01
  -9.36125368e-02 -7.26027861e-02 -9.82697234e-02 -2.54651550e-02
  -4.83185351e-01  3.41519713e-01  3.42496723e-01 -1.49172559e-01
   1.20397322e-01 -9.57764566e-01 -1.16919234e-01 -2.08577722e-01
   3.85205150e-01 -1.54215962e-01 -8.60032976e-01  4.32231307e-01]
 [-1.00830466e-01  9.13379416e-02 -1.70470566e-01 -2.87527144e-01
  -8.49077478e-02  2.42744341e-01 -5.54080248e-01 -7.65755624e-02
  -3.20215933e-02  2.99893379e-01  6.12663388e-01  2.36675069e-01
   3.46134692e-01 -2.64337361e-01  2.08714887e-01  1.41119257e-01
   1.70881510e-01 -3.86419356e-01  1.55412750e-02  9.90139619e-02
  -7.44239707e-03  2.14606732e-01 -1.62899345e-01  2.04592813e-02
  -8.41546953e-02  3.22327703e-01  3.00959498e-01 -1.24893815e-03
  -2.68769532e-01  6.81838393e-02  3.06770712e-01 -9.68888819e-01
  -1.87852472e-01 -2.11404860e-01 -1.89565599e-01  7.99198151e-02
  -8.76779974e-01  1.18988007e-01  2.54290760e-01 -8.50640908e-02
  -2.87895232e-01 -3.37856740e-01 -1.37247786e-01 -3.72668952e-02
  -1.09599732e-01 -2.27659401e-02  1.93568066e-01 -6.73189759e-02
  -2.06181593e-02  1.50016457e-01 -2.35364422e-01  2.83268958e-01
   1.00134313e-02 -1.59319807e-02  4.06716019e-01  5.73000498e-02
   1.13774061e-01 -8.20082501e-02  4.79233600e-02  2.71785736e-01
   4.30236787e-01  5.18401742e-01 -3.56236875e-01  2.95740247e-01
  -7.87348300e-02  9.02116358e-01 -2.15143546e-01  4.79152471e-01
  -3.73186499e-01 -1.37808099e-01 -6.78010145e-03 -1.51709586e-01
  -1.56715229e-01 -2.49027256e-02 -4.39322770e-01 -1.16187811e+00
   4.77465540e-01  5.33054173e-02  2.69416839e-01 -4.59537238e-01
   1.17243029e-01 -3.25342715e-01  6.53085038e-02 -4.79942970e-02
  -8.56199395e-03  5.45188300e-02  1.17032556e-02 -3.08511816e-02
   6.01130366e-01  2.71795392e-01  5.94143048e-02  2.37038046e-01
   2.24312663e-01  6.23848243e-03 -7.97833085e-01  1.87028676e-01
  -1.25738874e-01  5.86204864e-02  3.63609940e-01  2.40411922e-01
  -5.58763087e-01  6.38359725e-01  3.74276370e-01 -1.00089133e-01
   1.89708948e-01  8.65315646e-02 -2.15204775e-01  7.59877563e-01
  -2.45040357e-01 -9.72675562e-01  2.77603209e-01 -1.96006387e-01
  -1.01063505e-01  2.37450004e-01 -3.69955540e-01  8.80734622e-03
  -1.60836726e-01  5.64215183e-02  2.22229302e-01 -6.00084371e-04
  -2.89061606e-01 -5.39602757e-01 -1.60400748e-01 -9.18960571e-02
  -2.17671797e-01 -2.23685756e-01 -7.11822987e-01  5.34655511e-01]
 [ 2.75960714e-01  2.30637863e-01 -3.18688512e-01 -3.96634817e-01
  -6.28932985e-03  1.73046738e-01  2.16364153e-02 -6.63063526e-02
   1.02105767e-01  1.86546221e-01  3.47196937e-01  4.65000197e-02
   4.45441931e-01 -3.76638591e-01  5.40993452e-01  1.36074737e-01
   2.72495329e-01 -4.54577148e-01  5.79764068e-01  1.12155259e-01
   3.79733235e-01  5.79201281e-01 -6.42827749e-01 -3.33425671e-01
   1.10205211e-01 -2.12905854e-01  6.00709021e-01 -8.40492896e-04
  -1.07833028e-01 -9.93197188e-02  8.12637210e-01 -8.03143501e-01
  -1.77273616e-01 -6.31054938e-01 -1.05145645e+00  1.30283967e-01
  -1.44995403e+00 -3.96684438e-01  1.65613487e-01  5.76966703e-02
   1.22468034e-02 -3.68145943e-01  3.06499571e-01 -1.41878933e-01
   3.36969912e-01  2.66006216e-02  1.31339520e-01  1.70503274e-01
   6.45894408e-02 -1.41400978e-01 -2.95082539e-01  4.95949358e-01
  -8.99324343e-02  6.74697384e-02  3.12130243e-01  5.50311245e-02
   5.53690195e-02  7.05778375e-02  1.57522559e-01  2.95468032e-01
   4.33619648e-01  2.02717781e-01 -2.16858879e-01  3.74189258e-01
   1.14117682e-01  8.73352766e-01 -3.83550644e-01  1.78890958e-01
  -5.40390491e-01  5.18644527e-02  8.64547789e-02  1.60337642e-01
   2.92198271e-01 -5.17125838e-02 -2.44912118e-01 -1.88989830e+00
   4.59326478e-03 -1.92283794e-01  5.61554909e-01 -5.96688986e-01
   1.18743815e-01 -1.85661484e-02 -1.22988120e-01 -1.71302930e-02
   2.38894165e-01  5.51308751e-01 -4.23339456e-01  3.25827032e-01
   4.75118995e-01 -6.39142236e-03  9.48793143e-02  1.74745888e-01
   1.68998063e-01 -6.46223947e-02 -5.36384463e-01 -1.11835413e-02
  -8.21421891e-02  8.64129979e-03  2.79928278e-02  3.72497946e-01
  -6.15437865e-01  7.33613610e-01  3.34651768e-01 -4.18582559e-02
  -7.23952204e-02 -3.47090960e-02 -4.02113587e-01  4.29868966e-01
  -2.10427955e-01 -8.24158847e-01  4.28132951e-01  2.41465084e-02
  -2.31868140e-02  2.71712035e-01 -1.94604233e-01 -2.53260314e-01
  -3.72982502e-01 -1.63192257e-01 -5.91625553e-03  4.34399694e-02
  -4.04897571e-01 -2.38459289e-01  9.35056508e-02  1.84143230e-01
  -2.61485130e-01 -2.62587547e-01 -1.07341909e+00  4.02532309e-01]
 [ 2.37863749e-01  2.72512853e-01 -8.79217461e-02 -5.07919312e-01
   2.02634618e-01  8.97811130e-02 -3.97831440e-01 -4.81464043e-02
   7.94630945e-02  2.58908987e-01  1.77973330e-01  3.39274943e-01
   1.17537096e-01 -2.14040697e-01 -4.11382690e-02  6.27536923e-02
   4.43310710e-03 -8.28474104e-01  4.47396994e-01  3.20640802e-01
   1.83804750e-01  9.67237771e-01  6.95775822e-02  2.54042242e-02
   2.45075628e-01  1.87648553e-02  5.60349189e-02  2.91843433e-02
  -1.63603291e-01 -8.76327697e-03  3.74809623e-01 -4.80375588e-01
   1.45531774e-01 -1.40101507e-01 -6.54018879e-01  3.16998243e-01
  -7.81584680e-01 -2.88439721e-01  2.61605710e-01 -2.81984329e-01
  -2.14344691e-02 -2.00967509e-02  3.71971279e-02  1.12886690e-01
  -6.01350889e-02  7.29513615e-02  2.89804358e-02  3.96638840e-01
  -3.81090999e-01 -4.53652114e-01  1.03091653e-02  3.04757148e-01
   2.00459123e-01 -5.54988943e-02 -2.28812128e-01 -3.71693224e-01
  -6.10198360e-03 -4.24634755e-01  5.79339862e-01  6.00292943e-02
   3.13287705e-01 -2.63993591e-01 -2.29605153e-01  3.97061884e-01
  -1.75865605e-01  4.51589495e-01 -7.42898345e-01  6.63036287e-01
  -1.18398122e-01  1.07162781e-01  2.06924289e-01  3.05757195e-01
  -1.73493791e-02 -6.85497299e-02 -1.02461539e-01 -9.82388735e-01
   2.24626660e-01 -4.15876389e-01  4.56130594e-01 -6.59161866e-01
   1.47573322e-01 -2.40411788e-01  3.92473936e-02 -7.72618428e-02
   4.44998473e-01 -3.18872184e-02  7.48056620e-02  1.28196955e-01
   2.55773693e-01  5.37319660e-01 -1.02013536e-01  9.05165821e-03
  -1.57674298e-01 -6.72666952e-02 -1.24130011e+00 -1.31912008e-01
  -1.18538244e-02 -4.23195809e-02  3.43942970e-01 -1.54069483e-01
  -6.19031079e-02  1.73767805e-01  3.85206550e-01 -2.97554266e-02
  -1.07022906e-02 -1.85961679e-01  2.13723015e-02  5.92711866e-01
  -3.12551528e-01 -1.12005258e+00  3.12589675e-01  2.86241416e-02
  -2.00174212e-01 -2.09610537e-02  4.46367919e-01 -2.61795044e-01
  -6.06109202e-01  5.08303165e-01 -1.57025963e-01 -1.35733142e-01
  -7.29201287e-02 -6.30169570e-01 -4.46914971e-01 -1.34706283e-02
  -8.93926099e-02  7.90963992e-02 -9.03593004e-01  5.14284194e-01]
 [ 2.44994253e-01 -4.31651384e-01 -1.69908687e-01 -2.89714307e-01
  -2.86085844e-01  2.22964168e-01 -3.31796139e-01  7.36141130e-02
  -2.53463201e-02 -4.14196737e-02  1.13534495e-01  1.93663966e-02
   2.64916718e-01 -1.82502255e-01  2.41795722e-02  2.19463900e-01
   2.63511449e-01 -3.23557407e-01  1.35687023e-01 -3.28932822e-01
   2.88665056e-01  4.04382080e-01  3.43951434e-02 -8.70787576e-02
   5.43887258e-01 -3.04339707e-01  3.15420181e-01  6.85099289e-02
   1.11232795e-01  4.53394242e-02  3.82268101e-01  1.23922177e-01
   2.01937497e-01 -5.46546467e-02  1.43300518e-01 -1.34001970e-01
   1.98310643e-01  1.04623087e-01 -3.16158384e-01 -6.37694716e-01
  -4.80401427e-01  3.95554900e-01 -6.31327987e-01 -4.16507106e-03
   2.34606296e-01 -1.35485008e-02  1.62029322e-02  8.43375325e-02
   2.59834647e-01  1.32862091e-01  5.21766186e-01  4.84534770e-01
  -6.02240324e-01  3.49482521e-02 -3.08851808e-01  6.20216653e-02
  -6.51329532e-02 -7.37276822e-02 -2.21040234e-01  1.65264040e-01
   4.99041319e-01  6.15609765e-01 -2.09731176e-01  3.49591017e-01
   2.61720836e-01  3.54569793e-01 -3.71418804e-01  5.45803010e-01
   1.72938690e-01  4.06104118e-01  1.64577290e-01  4.57435966e-01
  -2.95974076e-01  6.93175644e-02  2.91850388e-01 -6.13892563e-02
   3.08211008e-03 -3.76452059e-01  6.90271676e-01 -4.96965319e-01
   6.31032884e-01 -1.13441840e-01 -3.10110211e-01 -3.93751003e-02
   1.27595544e-01 -5.66570237e-02  3.78349066e-01  1.91934779e-01
   9.38478112e-02 -7.53685236e-02  6.03473485e-02  3.57616365e-01
   1.34055898e-01  3.79577726e-02 -1.01428986e+00 -6.38607889e-02
   2.52634108e-01 -4.62164640e-01  1.95144266e-02 -3.41702193e-01
   2.97034323e-01 -4.05390233e-01 -5.94354331e-01 -8.77919644e-02
   3.66525918e-01  9.98654515e-02  2.15547197e-02  5.12416720e-01
  -2.13744059e-01 -1.88627690e-01 -1.08618483e-01  6.16932690e-01
  -6.53757811e-01 -1.20713525e-01  2.89628565e-01 -2.80473500e-01
  -5.67037165e-01  6.24346972e-01 -1.13053814e-01  2.07380697e-01
  -4.65263575e-01 -6.12842858e-01 -2.01615691e-01  4.85154353e-02
   1.36903837e-01  1.76880360e-01 -4.19291615e-01 -1.82633966e-01]
 [ 1.39069512e-01 -6.40015602e-01  1.89197630e-01 -3.85780036e-01
  -1.54483438e-01  3.57295364e-01 -3.92028064e-01  2.51399577e-02
  -4.74832989e-02  4.32781726e-01 -2.88949460e-01  6.23818710e-02
   5.19176900e-01 -1.97768793e-01 -1.18943363e-01  2.09848121e-01
   3.92246619e-02 -5.45781612e-01  8.15924108e-01 -8.22852254e-02
   3.54134709e-01  2.21494421e-01  1.25536114e-01  2.67039895e-01
  -4.34367448e-01  3.28316540e-02  4.32390809e-01  2.17428487e-02
  -4.20770347e-01  1.39237925e-01  4.97343481e-01 -2.76728421e-01
  -1.60695035e-02  2.64214665e-01  4.50642049e-01 -1.48787528e-01
   6.42383516e-01 -2.56522208e-01 -5.88237703e-01 -3.52623731e-01
  -7.46391952e-01  8.96528512e-02 -2.84634382e-01 -1.58842746e-02
   5.76236427e-01  8.98329355e-03 -1.34279162e-01  2.34421223e-01
   3.15542728e-01 -1.28677150e-03  4.47288573e-01  3.45768571e-01
  -1.28209841e+00  5.77144921e-02 -3.58858883e-01 -5.95529318e-01
   2.39572115e-02  1.52508408e-01 -1.24048197e+00 -1.28704205e-01
   8.99563059e-02  4.31591451e-01 -6.39695972e-02  3.17498259e-02
  -1.52707705e-02  6.74259245e-01 -2.57937849e-01  3.57097723e-02
   4.27681088e-01  6.61577463e-01  1.33517951e-01  7.36987293e-01
   4.34545148e-03 -7.44398460e-02 -3.60723674e-01  4.23089504e-01
   6.19086772e-02 -8.00696462e-02  8.57734442e-01 -8.10837805e-01
   5.12250543e-01  7.98189119e-02 -1.05975874e-01  4.90624085e-02
  -1.21348411e-01  7.72413611e-02 -1.59435883e-01 -1.54384881e-01
  -1.75941765e-01 -1.67629234e-02  5.00958264e-01  1.80471510e-01
   5.37283242e-01 -8.44914988e-02 -7.01001465e-01  5.15749492e-02
   2.18334049e-01 -5.37892759e-01 -2.66632047e-02 -2.92660207e-01
   3.61878902e-01 -7.02878386e-02 -1.35140669e+00 -5.43972030e-02
   6.57212496e-01  1.56390548e-01 -1.29043788e-01  9.76487771e-02
  -8.67343768e-02 -4.74410020e-02 -1.66942641e-01  8.30449760e-01
  -1.15643132e+00 -5.48045456e-01  2.25402117e-01 -3.04497015e-02
   2.45302334e-01  7.54016519e-01 -5.71352839e-02  5.14715910e-01
  -5.55699944e-01  1.09295398e-02 -2.11516261e-01  4.88356091e-02
  -1.53763995e-01 -1.65631711e-01  1.02936529e-01  5.21073103e-01]
 [-1.45735040e-01 -7.09169447e-01 -5.01535356e-01 -9.14246216e-02
   3.08140963e-01  2.30320588e-01 -1.42751247e-01  8.64115357e-02
  -2.49905102e-02  1.48890391e-01 -1.05547583e+00  3.65585238e-02
   8.66667181e-02 -9.98762324e-02  7.08243072e-01  4.06001061e-01
   1.00870587e-01 -2.72166610e-01  1.16295171e+00 -1.26764700e-01
   1.97205171e-01 -2.83771366e-01 -2.81666070e-01  3.18496585e-01
  -3.22293222e-01  3.72853130e-01  2.04201005e-02  4.69685234e-02
   3.75173204e-02  1.78505890e-02 -1.34706602e-01  3.16378862e-01
  -2.89574303e-02 -5.19533921e-03  1.70718774e-01 -2.20705748e-01
   5.86453199e-01 -4.69676405e-01  6.42511696e-02  1.02905586e-01
  -5.05713046e-01  1.85843050e-01  2.16528535e-01  1.09800704e-01
   5.16136825e-01 -7.30821490e-02  3.70690495e-01  1.18522361e-01
  -5.67376435e-01 -1.32898048e-01  1.50815710e-01  3.48071724e-01
  -9.61860120e-01 -1.87809672e-02 -3.70011836e-01  1.83549941e-01
  -1.20167129e-01  5.03269970e-01 -4.00321156e-01  4.61359859e-01
   3.31330270e-01  7.66625404e-01 -1.10061176e-01  2.13752627e-01
  -1.32805973e-01 -1.28175229e-01  2.38869749e-02  3.38090688e-01
  -3.56731899e-02  2.47355968e-01  1.90439165e-01  2.21953794e-01
   2.22869799e-01 -4.79059368e-02 -6.42698169e-01  7.50652790e-01
  -2.37754107e-01 -1.27685681e-01  6.25103354e-01 -6.83597207e-01
   6.09581590e-01  4.44820732e-01 -4.91454363e-01  4.59288806e-03
  -5.85131645e-01  3.31004977e-01 -4.88607377e-01  2.18969673e-01
  -2.76226193e-01 -5.81494510e-01  4.79213089e-01  9.94502604e-02
   9.97502983e-01 -2.84936074e-02 -9.58920717e-01  4.19831485e-01
   6.52272582e-01 -7.00968727e-02  2.53175110e-01  4.82626617e-01
  -4.39367265e-01  9.80095804e-01 -2.14002681e+00 -8.99135098e-02
   3.25359404e-01  8.58182833e-02 -2.85568088e-02  4.60353106e-01
  -1.03762433e-01 -1.23008177e-01  5.52588046e-01  1.08782196e+00
  -9.83652353e-01  1.15182243e-01 -5.99275492e-02  1.89441621e-01
  -2.07038626e-01  5.48563898e-01  4.79476273e-01  2.79746979e-01
  -3.85465175e-01 -2.47277245e-01 -5.02180755e-01  6.71643674e-01
  -1.34263173e-01  3.15403901e-02  8.35109800e-02 -2.14610249e-01]
 [-5.26554137e-02 -5.59261322e-01  8.02677572e-02  5.83953150e-02
  -5.29226065e-01  3.40914488e-01 -5.89849055e-02  2.04933528e-02
   4.44009900e-02 -6.89160764e-01 -1.02483499e+00 -2.85887122e-01
  -9.34107676e-02 -7.28197917e-02  5.89775085e-01  3.19819540e-01
   3.16425025e-01  4.73292768e-02  6.96090013e-02 -1.32628113e-01
   5.99114835e-01 -7.60494888e-01 -1.45690357e-02  2.25626037e-01
   1.14824012e-01  3.09901953e-01  3.04343700e-01 -2.07830906e-01
   7.28692785e-02  7.70455778e-01 -4.07298282e-02  1.19122326e-01
  -2.52493650e-01 -1.26861945e-01  4.71991718e-01 -5.98228276e-02
